<?xml version="1.0"?>
<opencv_storage>
<stage16>
  <maxWeakCount>20</maxWeakCount>
  <stageThreshold>-1.3601393699645996e+00</stageThreshold>
  <weakClassifiers>
    <_>
      <internalNodes>
        0 -1 38467 -7.4719846248626709e-02</internalNodes>
      <leafValues>
        6.8518519401550293e-01 -4.6497765183448792e-01</leafValues></_>
    <_>
      <internalNodes>
        0 -1 2817 -1.6645696014165878e-03</internalNodes>
      <leafValues>
        2.4409091472625732e-01 -3.3134973049163818e-01</leafValues></_>
    <_>
      <internalNodes>
        0 -1 20266 -7.8330206451937556e-04</internalNodes>
      <leafValues>
        -4.6805125474929810e-01 1.7597897350788116e-01</leafValues></_>
    <_>
      <internalNodes>
        0 -1 281 -6.1766892671585083e-02</internalNodes>
      <leafValues>
        7.1894729137420654e-01 -6.3526228070259094e-02</leafValues></_>
    <_>
      <internalNodes>
        0 -1 137414 1.7080570105463266e-03</internalNodes>
      <leafValues>
        -2.3739875853061676e-01 3.8228133320808411e-01</leafValues></_>
    <_>
      <internalNodes>
        0 -1 50100 2.2401049733161926e-01</internalNodes>
      <leafValues>
        -9.4330094754695892e-02 8.5006296634674072e-01</leafValues></_>
    <_>
      <internalNodes>
        0 -1 101374 1.7834082245826721e-02</internalNodes>
      <leafValues>
        -1.9814687967300415e-01 3.9264693856239319e-01</leafValues></_>
    <_>
      <internalNodes>
        0 -1 528 1.2147498130798340e-01</internalNodes>
      <leafValues>
        -1.0102783143520355e-01 7.3664909601211548e-01</leafValues></_>
    <_>
      <internalNodes>
        0 -1 34969 -8.4797479212284088e-04</internalNodes>
      <leafValues>
        3.1523770093917847e-01 -3.1593430042266846e-01</leafValues></_>
    <_>
      <internalNodes>
        0 -1 117471 -2.2376269102096558e-02</internalNodes>
      <leafValues>
        -6.4656782150268555e-01 1.3402573764324188e-01</leafValues></_>
    <_>
      <internalNodes>
        0 -1 104691 -2.5390475988388062e-02</internalNodes>
      <leafValues>
        3.0387547612190247e-01 -2.3423415422439575e-01</leafValues></_>
    <_>
      <internalNodes>
        0 -1 132679 3.6271454300731421e-03</internalNodes>
      <leafValues>
        -2.4158068001270294e-01 3.3725363016128540e-01</leafValues></_>
    <_>
      <internalNodes>
        0 -1 162113 -2.8800446540117264e-02</internalNodes>
      <leafValues>
        8.7522232532501221e-01 -9.7874239087104797e-02</leafValues></_>
    <_>
      <internalNodes>
        0 -1 39231 2.5233812630176544e-03</internalNodes>
      <leafValues>
        1.3172800838947296e-01 -7.5170224905014038e-01</leafValues></_>
    <_>
      <internalNodes>
        0 -1 50076 -1.0657753050327301e-01</internalNodes>
      <leafValues>
        9.0792965888977051e-01 -1.2242168933153152e-01</leafValues></_>
    <_>
      <internalNodes>
        0 -1 73605 -6.1772435903549194e-02</internalNodes>
      <leafValues>
        5.0771224498748779e-01 -1.5158516168594360e-01</leafValues></_>
    <_>
      <internalNodes>
        0 -1 38929 -3.7460081512108445e-04</internalNodes>
      <leafValues>
        -6.8499386310577393e-01 1.0175821930170059e-01</leafValues></_>
    <_>
      <internalNodes>
        0 -1 124812 2.1614033728837967e-02</internalNodes>
      <leafValues>
        -1.7251975834369659e-01 5.0105279684066772e-01</leafValues></_>
    <_>
      <internalNodes>
        0 -1 132975 -6.2571931630373001e-04</internalNodes>
      <leafValues>
        3.6174690723419189e-01 -1.9980651140213013e-01</leafValues></_>
    <_>
      <internalNodes>
        0 -1 11531 -3.4104413352906704e-03</internalNodes>
      <leafValues>
        -6.9471639394760132e-01 1.2700977921485901e-01</leafValues></_></weakClassifiers></stage16>
</opencv_storage>
