<?xml version="1.0"?>
<opencv_storage>
<stage1>
  <maxWeakCount>10</maxWeakCount>
  <stageThreshold>-1.0384144783020020e+00</stageThreshold>
  <weakClassifiers>
    <_>
      <internalNodes>
        0 -1 2736 -1.4868694543838501e-01</internalNodes>
      <leafValues>
        5.7788944244384766e-01 -5.3157472610473633e-01</leafValues></_>
    <_>
      <internalNodes>
        0 -1 70577 7.7869491651654243e-03</internalNodes>
      <leafValues>
        1.0985721647739410e-01 -7.7794647216796875e-01</leafValues></_>
    <_>
      <internalNodes>
        0 -1 26480 3.6809161305427551e-02</internalNodes>
      <leafValues>
        -1.9026699662208557e-01 6.1040878295898438e-01</leafValues></_>
    <_>
      <internalNodes>
        0 -1 29264 1.3372334837913513e-01</internalNodes>
      <leafValues>
        -1.6563108563423157e-01 5.9819841384887695e-01</leafValues></_>
    <_>
      <internalNodes>
        0 -1 64753 -5.7447068393230438e-02</internalNodes>
      <leafValues>
        5.6333452463150024e-01 -1.8056581914424896e-01</leafValues></_>
    <_>
      <internalNodes>
        0 -1 118863 -4.7924287617206573e-02</internalNodes>
      <leafValues>
        8.0723118782043457e-01 -1.5237063169479370e-01</leafValues></_>
    <_>
      <internalNodes>
        0 -1 126894 -7.4922907515428960e-05</internalNodes>
      <leafValues>
        3.1787157058715820e-01 -3.0756548047065735e-01</leafValues></_>
    <_>
      <internalNodes>
        0 -1 9752 -1.0448707640171051e-01</internalNodes>
      <leafValues>
        5.5503958463668823e-01 -1.8552589416503906e-01</leafValues></_>
    <_>
      <internalNodes>
        0 -1 135696 -3.9564527571201324e-02</internalNodes>
      <leafValues>
        5.3495025634765625e-01 -1.9502638280391693e-01</leafValues></_>
    <_>
      <internalNodes>
        0 -1 139214 5.9074577875435352e-03</internalNodes>
      <leafValues>
        1.5425282716751099e-01 -7.2147130966186523e-01</leafValues></_></weakClassifiers></stage1>
</opencv_storage>
