<?xml version="1.0"?>
<opencv_storage>
<stage10>
  <maxWeakCount>18</maxWeakCount>
  <stageThreshold>-1.3592604398727417e+00</stageThreshold>
  <weakClassifiers>
    <_>
      <internalNodes>
        0 -1 106731 1.1886634863913059e-02</internalNodes>
      <leafValues>
        -4.5727136731147766e-01 5.1724135875701904e-01</leafValues></_>
    <_>
      <internalNodes>
        0 -1 3475 -6.2688380479812622e-02</internalNodes>
      <leafValues>
        3.9631697535514832e-01 -2.7513292431831360e-01</leafValues></_>
    <_>
      <internalNodes>
        0 -1 155230 2.6701171882450581e-03</internalNodes>
      <leafValues>
        1.2708614766597748e-01 -8.8565540313720703e-01</leafValues></_>
    <_>
      <internalNodes>
        0 -1 105508 -4.3530850671231747e-03</internalNodes>
      <leafValues>
        3.5456699132919312e-01 -2.3271511495113373e-01</leafValues></_>
    <_>
      <internalNodes>
        0 -1 97689 -1.3361817691475153e-03</internalNodes>
      <leafValues>
        3.8486349582672119e-01 -1.9964863359928131e-01</leafValues></_>
    <_>
      <internalNodes>
        0 -1 2360 3.5430737771093845e-03</internalNodes>
      <leafValues>
        2.0440764725208282e-01 -3.8591271638870239e-01</leafValues></_>
    <_>
      <internalNodes>
        0 -1 6660 2.9142516723368317e-05</internalNodes>
      <leafValues>
        -2.0924328267574310e-01 3.7358239293098450e-01</leafValues></_>
    <_>
      <internalNodes>
        0 -1 605 1.1844724416732788e-01</internalNodes>
      <leafValues>
        -1.2963488698005676e-01 6.5518391132354736e-01</leafValues></_>
    <_>
      <internalNodes>
        0 -1 50636 -9.1818403452634811e-03</internalNodes>
      <leafValues>
        3.0507677793502808e-01 -2.5850027799606323e-01</leafValues></_>
    <_>
      <internalNodes>
        0 -1 111993 -3.8040948566049337e-03</internalNodes>
      <leafValues>
        -7.8660047054290771e-01 1.0331129282712936e-01</leafValues></_>
    <_>
      <internalNodes>
        0 -1 99329 2.8168391509098001e-05</internalNodes>
      <leafValues>
        -3.1417921185493469e-01 2.4377571046352386e-01</leafValues></_>
    <_>
      <internalNodes>
        0 -1 93303 -3.7634288892149925e-03</internalNodes>
      <leafValues>
        2.9635593295097351e-01 -2.2521571815013885e-01</leafValues></_>
    <_>
      <internalNodes>
        0 -1 117308 -1.3795989751815796e-01</internalNodes>
      <leafValues>
        9.1855186223983765e-01 -9.2106625437736511e-02</leafValues></_>
    <_>
      <internalNodes>
        0 -1 13325 -1.2319419533014297e-02</internalNodes>
      <leafValues>
        -7.1465587615966797e-01 1.1661475896835327e-01</leafValues></_>
    <_>
      <internalNodes>
        0 -1 49144 -2.7986585337202996e-05</internalNodes>
      <leafValues>
        3.1616961956024170e-01 -2.2535021603107452e-01</leafValues></_>
    <_>
      <internalNodes>
        0 -1 26407 -2.3912228643894196e-01</internalNodes>
      <leafValues>
        8.4373807907104492e-01 -7.8059166669845581e-02</leafValues></_>
    <_>
      <internalNodes>
        0 -1 90859 -3.5780658945441246e-03</internalNodes>
      <leafValues>
        3.5052284598350525e-01 -1.9162999093532562e-01</leafValues></_>
    <_>
      <internalNodes>
        0 -1 68162 9.1461616102606058e-04</internalNodes>
      <leafValues>
        -1.8933065235614777e-01 3.8532608747482300e-01</leafValues></_></weakClassifiers></stage10>
</opencv_storage>
