<?xml version="1.0"?>
<opencv_storage>
<stage5>
  <maxWeakCount>15</maxWeakCount>
  <stageThreshold>-1.2919863462448120e+00</stageThreshold>
  <weakClassifiers>
    <_>
      <internalNodes>
        0 -1 619 -5.4246377944946289e-01</internalNodes>
      <leafValues>
        8.0219781398773193e-01 -4.5842531323432922e-01</leafValues></_>
    <_>
      <internalNodes>
        0 -1 30856 -2.1293150261044502e-02</internalNodes>
      <leafValues>
        4.6006745100021362e-01 -2.4201169610023499e-01</leafValues></_>
    <_>
      <internalNodes>
        0 -1 132196 1.7451625317335129e-03</internalNodes>
      <leafValues>
        -1.9280368089675903e-01 4.6282005310058594e-01</leafValues></_>
    <_>
      <internalNodes>
        0 -1 38495 6.1123423278331757e-02</internalNodes>
      <leafValues>
        -1.7394506931304932e-01 5.8176666498184204e-01</leafValues></_>
    <_>
      <internalNodes>
        0 -1 128588 1.1049718596041203e-03</internalNodes>
      <leafValues>
        1.6198402643203735e-01 -7.1092993021011353e-01</leafValues></_>
    <_>
      <internalNodes>
        0 -1 114315 6.4989645034074783e-03</internalNodes>
      <leafValues>
        1.5598133206367493e-01 -5.8289945125579834e-01</leafValues></_>
    <_>
      <internalNodes>
        0 -1 119309 -6.9519528187811375e-04</internalNodes>
      <leafValues>
        2.5152570009231567e-01 -3.2665899395942688e-01</leafValues></_>
    <_>
      <internalNodes>
        0 -1 114807 -3.4153707325458527e-02</internalNodes>
      <leafValues>
        4.8803940415382385e-01 -1.8739961087703705e-01</leafValues></_>
    <_>
      <internalNodes>
        0 -1 91035 -3.2780628651380539e-02</internalNodes>
      <leafValues>
        7.0448750257492065e-01 -1.2776115536689758e-01</leafValues></_>
    <_>
      <internalNodes>
        0 -1 144389 -3.4430116647854447e-04</internalNodes>
      <leafValues>
        -5.0257974863052368e-01 1.9199720025062561e-01</leafValues></_>
    <_>
      <internalNodes>
        0 -1 4521 7.1417316794395447e-02</internalNodes>
      <leafValues>
        -2.1164654195308685e-01 4.0657633543014526e-01</leafValues></_>
    <_>
      <internalNodes>
        0 -1 87910 3.0527915805578232e-04</internalNodes>
      <leafValues>
        -1.7659352719783783e-01 5.1824074983596802e-01</leafValues></_>
    <_>
      <internalNodes>
        0 -1 78678 -1.0177810909226537e-03</internalNodes>
      <leafValues>
        3.9668649435043335e-01 -2.2686032950878143e-01</leafValues></_>
    <_>
      <internalNodes>
        0 -1 12830 -3.5741541069000959e-03</internalNodes>
      <leafValues>
        -8.0924803018569946e-01 1.1008735001087189e-01</leafValues></_>
    <_>
      <internalNodes>
        0 -1 97130 -9.9560653325170279e-04</internalNodes>
      <leafValues>
        4.5342877507209778e-01 -2.0615318417549133e-01</leafValues></_></weakClassifiers></stage5>
</opencv_storage>
