<?xml version="1.0"?>
<opencv_storage>
<stage3>
  <maxWeakCount>12</maxWeakCount>
  <stageThreshold>-1.3039706945419312e+00</stageThreshold>
  <weakClassifiers>
    <_>
      <internalNodes>
        0 -1 614 -4.3522405624389648e-01</internalNodes>
      <leafValues>
        7.2173911333084106e-01 -4.7415730357170105e-01</leafValues></_>
    <_>
      <internalNodes>
        0 -1 2901 1.8682935833930969e-01</internalNodes>
      <leafValues>
        -2.7933239936828613e-01 5.1678311824798584e-01</leafValues></_>
    <_>
      <internalNodes>
        0 -1 783 -1.0877659916877747e-01</internalNodes>
      <leafValues>
        6.7296248674392700e-01 -1.2819744646549225e-01</leafValues></_>
    <_>
      <internalNodes>
        0 -1 14397 9.4265388324856758e-03</internalNodes>
      <leafValues>
        1.6233597695827484e-01 -6.3383764028549194e-01</leafValues></_>
    <_>
      <internalNodes>
        0 -1 45281 8.7972268462181091e-02</internalNodes>
      <leafValues>
        -1.2877735495567322e-01 6.2482577562332153e-01</leafValues></_>
    <_>
      <internalNodes>
        0 -1 141243 4.6688135713338852e-02</internalNodes>
      <leafValues>
        -1.7799665033817291e-01 6.5565663576126099e-01</leafValues></_>
    <_>
      <internalNodes>
        0 -1 12528 -4.5345537364482880e-04</internalNodes>
      <leafValues>
        -8.1613254547119141e-01 1.3347245752811432e-01</leafValues></_>
    <_>
      <internalNodes>
        0 -1 118477 -2.2083502262830734e-03</internalNodes>
      <leafValues>
        1.9609566032886505e-01 -4.3318602442741394e-01</leafValues></_>
    <_>
      <internalNodes>
        0 -1 11046 7.4114464223384857e-04</internalNodes>
      <leafValues>
        1.3724911212921143e-01 -6.7240041494369507e-01</leafValues></_>
    <_>
      <internalNodes>
        0 -1 49447 -2.6612833142280579e-02</internalNodes>
      <leafValues>
        -8.0295908451080322e-01 1.1193408071994781e-01</leafValues></_>
    <_>
      <internalNodes>
        0 -1 39584 1.6736721992492676e-01</internalNodes>
      <leafValues>
        -1.2976175546646118e-01 8.9507663249969482e-01</leafValues></_>
    <_>
      <internalNodes>
        0 -1 10817 7.6023831963539124e-02</internalNodes>
      <leafValues>
        -1.0253962129354477e-01 7.1435141563415527e-01</leafValues></_></weakClassifiers></stage3>
</opencv_storage>
