<?xml version="1.0"?>
<opencv_storage>
<stage0>
  <maxWeakCount>5</maxWeakCount>
  <stageThreshold>-1.0881953239440918e+00</stageThreshold>
  <weakClassifiers>
    <_>
      <internalNodes>
        0 -1 144627 4.2393233627080917e-02</internalNodes>
      <leafValues>
        -8.4950494766235352e-01 6.8571430444717407e-01</leafValues></_>
    <_>
      <internalNodes>
        0 -1 23935 4.8615511506795883e-02</internalNodes>
      <leafValues>
        -7.6482176780700684e-01 5.4332053661346436e-01</leafValues></_>
    <_>
      <internalNodes>
        0 -1 592 -1.4842012524604797e-01</internalNodes>
      <leafValues>
        8.7737339735031128e-01 -5.4602849483489990e-01</leafValues></_>
    <_>
      <internalNodes>
        0 -1 657 -1.0269299149513245e-02</internalNodes>
      <leafValues>
        5.5085086822509766e-01 -7.1126592159271240e-01</leafValues></_>
    <_>
      <internalNodes>
        0 -1 5160 -9.0268086642026901e-03</internalNodes>
      <leafValues>
        5.2130907773971558e-01 -5.7821053266525269e-01</leafValues></_></weakClassifiers></stage0>
</opencv_storage>
