<?xml version="1.0"?>
<opencv_storage>
<cascade>
  <stageType>BOOST</stageType>
  <featureType>HAAR</featureType>
  <height>20</height>
  <width>43</width>
  <stageParams>
    <boostType>GAB</boostType>
    <minHitRate>9.9500000476837158e-01</minHitRate>
    <maxFalseAlarm>5.0000000000000000e-01</maxFalseAlarm>
    <weightTrimRate>9.4999999999999996e-01</weightTrimRate>
    <maxDepth>1</maxDepth>
    <maxWeakCount>100</maxWeakCount></stageParams>
  <featureParams>
    <maxCatCount>0</maxCatCount>
    <featSize>1</featSize>
    <mode>BASIC</mode></featureParams>
  <stageNum>5</stageNum>
  <stages>
    <!-- stage 0 -->
    <_>
      <maxWeakCount>3</maxWeakCount>
      <stageThreshold>-1.4003853797912598e+00</stageThreshold>
      <weakClassifiers>
        <_>
          <internalNodes>
            0 -1 1 -1.5703007578849792e-01</internalNodes>
          <leafValues>
            6.5217393636703491e-01 -9.8208957910537720e-01</leafValues></_>
        <_>
          <internalNodes>
            0 -1 4 -1.9690576195716858e-01</internalNodes>
          <leafValues>
            4.1685569286346436e-01 -9.6064031124114990e-01</leafValues></_>
        <_>
          <internalNodes>
            0 -1 9 -4.4409282505512238e-02</internalNodes>
          <leafValues>
            8.1852823495864868e-01 -8.3515149354934692e-01</leafValues></_></weakClassifiers></_>
    <!-- stage 1 -->
    <_>
      <maxWeakCount>3</maxWeakCount>
      <stageThreshold>-1.5415518283843994e+00</stageThreshold>
      <weakClassifiers>
        <_>
          <internalNodes>
            0 -1 7 2.1119552850723267e-01</internalNodes>
          <leafValues>
            -9.7819626331329346e-01 7.8947371244430542e-01</leafValues></_>
        <_>
          <internalNodes>
            0 -1 12 -1.5405097603797913e-01</internalNodes>
          <leafValues>
            1. -8.9355123043060303e-01</leafValues></_>
        <_>
          <internalNodes>
            0 -1 8 -8.1411264836788177e-03</internalNodes>
          <leafValues>
            3.3019560575485229e-01 -9.2454349994659424e-01</leafValues></_></weakClassifiers></_>
    <!-- stage 2 -->
    <_>
      <maxWeakCount>4</maxWeakCount>
      <stageThreshold>-1.8683906793594360e+00</stageThreshold>
      <weakClassifiers>
        <_>
          <internalNodes>
            0 -1 10 -1.5934771299362183e-01</internalNodes>
          <leafValues>
            8.7500000000000000e-01 -9.7430831193923950e-01</leafValues></_>
        <_>
          <internalNodes>
            0 -1 13 1.3949656486511230e-01</internalNodes>
          <leafValues>
            -9.0204966068267822e-01 5.6082350015640259e-01</leafValues></_>
        <_>
          <internalNodes>
            0 -1 2 -2.3489847779273987e-01</internalNodes>
          <leafValues>
            8.1099593639373779e-01 -7.0590871572494507e-01</leafValues></_>
        <_>
          <internalNodes>
            0 -1 5 6.7057818174362183e-02</internalNodes>
          <leafValues>
            -7.0619565248489380e-01 7.1387600898742676e-01</leafValues></_></weakClassifiers></_>
    <!-- stage 3 -->
    <_>
      <maxWeakCount>4</maxWeakCount>
      <stageThreshold>-2.2238047122955322e+00</stageThreshold>
      <weakClassifiers>
        <_>
          <internalNodes>
            0 -1 11 -1.5362222492694855e-01</internalNodes>
          <leafValues>
            1. -9.6850395202636719e-01</leafValues></_>
        <_>
          <internalNodes>
            0 -1 3 -7.7449455857276917e-02</internalNodes>
          <leafValues>
            3.2937091588973999e-01 -8.9196401834487915e-01</leafValues></_>
        <_>
          <internalNodes>
            0 -1 0 -3.4245884418487549e-01</internalNodes>
          <leafValues>
            4.3443503975868225e-01 -7.5159651041030884e-01</leafValues></_>
        <_>
          <internalNodes>
            0 -1 17 1.7056765034794807e-02</internalNodes>
          <leafValues>
            -7.9777193069458008e-01 4.9354100227355957e-01</leafValues></_></weakClassifiers></_>
    <!-- stage 4 -->
    <_>
      <maxWeakCount>4</maxWeakCount>
      <stageThreshold>-2.1145384311676025e+00</stageThreshold>
      <weakClassifiers>
        <_>
          <internalNodes>
            0 -1 6 3.6106401681900024e-01</internalNodes>
          <leafValues>
            -9.6270853281021118e-01 1.</leafValues></_>
        <_>
          <internalNodes>
            0 -1 16 -8.1470362842082977e-02</internalNodes>
          <leafValues>
            9.5254820585250854e-01 -8.3613699674606323e-01</leafValues></_>
        <_>
          <internalNodes>
            0 -1 14 -5.9270318160997704e-05</internalNodes>
          <leafValues>
            2.1754328906536102e-01 -8.6949712038040161e-01</leafValues></_>
        <_>
          <internalNodes>
            0 -1 15 -9.6947029232978821e-03</internalNodes>
          <leafValues>
            6.9490325450897217e-01 -5.3323626518249512e-01</leafValues></_></weakClassifiers></_></stages>
  <features>
    <_>
      <rects>
        <_>
          0 0 40 12 -1.</_>
        <_>
          20 0 20 12 2.</_></rects>
      <tilted>0</tilted></_>
    <_>
      <rects>
        <_>
          0 5 32 5 -1.</_>
        <_>
          16 5 16 5 2.</_></rects>
      <tilted>0</tilted></_>
    <_>
      <rects>
        <_>
          0 7 36 6 -1.</_>
        <_>
          18 7 18 6 2.</_></rects>
      <tilted>0</tilted></_>
    <_>
      <rects>
        <_>
          1 11 24 6 -1.</_>
        <_>
          9 11 8 6 3.</_></rects>
      <tilted>0</tilted></_>
    <_>
      <rects>
        <_>
          4 4 39 7 -1.</_>
        <_>
          17 4 13 7 3.</_></rects>
      <tilted>0</tilted></_>
    <_>
      <rects>
        <_>
          5 6 18 14 -1.</_>
        <_>
          5 6 9 7 2.</_>
        <_>
          14 13 9 7 2.</_></rects>
      <tilted>0</tilted></_>
    <_>
      <rects>
        <_>
          8 0 34 18 -1.</_>
        <_>
          8 0 17 9 2.</_>
        <_>
          25 9 17 9 2.</_></rects>
      <tilted>0</tilted></_>
    <_>
      <rects>
        <_>
          10 0 26 20 -1.</_>
        <_>
          10 0 13 10 2.</_>
        <_>
          23 10 13 10 2.</_></rects>
      <tilted>0</tilted></_>
    <_>
      <rects>
        <_>
          10 3 5 9 -1.</_>
        <_>
          10 6 5 3 3.</_></rects>
      <tilted>0</tilted></_>
    <_>
      <rects>
        <_>
          10 10 16 3 -1.</_>
        <_>
          18 10 8 3 2.</_></rects>
      <tilted>0</tilted></_>
    <_>
      <rects>
        <_>
          11 0 28 5 -1.</_>
        <_>
          25 0 14 5 2.</_></rects>
      <tilted>0</tilted></_>
    <_>
      <rects>
        <_>
          11 0 30 4 -1.</_>
        <_>
          26 0 15 4 2.</_></rects>
      <tilted>0</tilted></_>
    <_>
      <rects>
        <_>
          11 0 32 5 -1.</_>
        <_>
          27 0 16 5 2.</_></rects>
      <tilted>0</tilted></_>
    <_>
      <rects>
        <_>
          12 0 22 14 -1.</_>
        <_>
          12 0 11 7 2.</_>
        <_>
          23 7 11 7 2.</_></rects>
      <tilted>0</tilted></_>
    <_>
      <rects>
        <_>
          12 14 1 2 -1.</_>
        <_>
          12 15 1 1 2.</_></rects>
      <tilted>0</tilted></_>
    <_>
      <rects>
        <_>
          13 0 10 4 -1.</_>
        <_>
          13 0 5 2 2.</_>
        <_>
          18 2 5 2 2.</_></rects>
      <tilted>0</tilted></_>
    <_>
      <rects>
        <_>
          13 1 30 2 -1.</_>
        <_>
          28 1 15 2 2.</_></rects>
      <tilted>0</tilted></_>
    <_>
      <rects>
        <_>
          15 2 28 4 -1.</_>
        <_>
          15 2 14 2 2.</_>
        <_>
          29 4 14 2 2.</_></rects>
      <tilted>0</tilted></_></features></cascade>
</opencv_storage>
