<?xml version="1.0"?>
<opencv_storage>
<cascade>
  <stageType>BOOST</stageType>
  <featureType>HAAR</featureType>
  <height>24</height>
  <width>24</width>
  <stageParams>
    <boostType>GAB</boostType>
    <minHitRate>9.9500000476837158e-01</minHitRate>
    <maxFalseAlarm>5.0000000000000000e-01</maxFalseAlarm>
    <weightTrimRate>9.4999999999999996e-01</weightTrimRate>
    <maxDepth>1</maxDepth>
    <maxWeakCount>100</maxWeakCount></stageParams>
  <featureParams>
    <maxCatCount>0</maxCatCount>
    <featSize>1</featSize>
    <mode>BASIC</mode></featureParams>
  <stageNum>8</stageNum>
  <stages>
    <!-- stage 0 -->
    <_>
      <maxWeakCount>5</maxWeakCount>
      <stageThreshold>-2.0390751361846924e+00</stageThreshold>
      <weakClassifiers>
        <_>
          <internalNodes>
            0 -1 22 -1.5618911385536194e-01</internalNodes>
          <leafValues>
            1.4285714924335480e-01 -9.2405062913894653e-01</leafValues></_>
        <_>
          <internalNodes>
            0 -1 13 4.4041030108928680e-02</internalNodes>
          <leafValues>
            -9.5196098089218140e-01 -1.0771504789590836e-01</leafValues></_>
        <_>
          <internalNodes>
            0 -1 8 -2.4964613839983940e-02</internalNodes>
          <leafValues>
            3.9288651943206787e-01 -6.6389071941375732e-01</leafValues></_>
        <_>
          <internalNodes>
            0 -1 37 2.5968102738261223e-02</internalNodes>
          <leafValues>
            -6.9627016782760620e-01 4.7836464643478394e-01</leafValues></_>
        <_>
          <internalNodes>
            0 -1 20 4.6744092833250761e-04</internalNodes>
          <leafValues>
            -7.0316976308822632e-01 3.5285148024559021e-01</leafValues></_></weakClassifiers></_>
    <!-- stage 1 -->
    <_>
      <maxWeakCount>5</maxWeakCount>
      <stageThreshold>-1.9005922079086304e+00</stageThreshold>
      <weakClassifiers>
        <_>
          <internalNodes>
            0 -1 14 6.8212477490305901e-03</internalNodes>
          <leafValues>
            -9.3260651826858521e-01 -8.6956523358821869e-02</leafValues></_>
        <_>
          <internalNodes>
            0 -1 21 -4.3829619884490967e-02</internalNodes>
          <leafValues>
            8.9522823691368103e-03 -7.9654657840728760e-01</leafValues></_>
        <_>
          <internalNodes>
            0 -1 41 -1.2934932485222816e-02</internalNodes>
          <leafValues>
            3.3236849308013916e-01 -6.6546320915222168e-01</leafValues></_>
        <_>
          <internalNodes>
            0 -1 0 2.2515673190355301e-02</internalNodes>
          <leafValues>
            -4.7485473752021790e-01 5.1107293367385864e-01</leafValues></_>
        <_>
          <internalNodes>
            0 -1 32 -6.4529513474553823e-04</internalNodes>
          <leafValues>
            -8.3445167541503906e-01 3.0144795775413513e-01</leafValues></_></weakClassifiers></_>
    <!-- stage 2 -->
    <_>
      <maxWeakCount>5</maxWeakCount>
      <stageThreshold>-2.2618668079376221e+00</stageThreshold>
      <weakClassifiers>
        <_>
          <internalNodes>
            0 -1 6 -3.0191149562597275e-02</internalNodes>
          <leafValues>
            7.6923079788684845e-02 -9.2031097412109375e-01</leafValues></_>
        <_>
          <internalNodes>
            0 -1 2 4.3576925992965698e-02</internalNodes>
          <leafValues>
            -6.8563693761825562e-01 3.9277154207229614e-01</leafValues></_>
        <_>
          <internalNodes>
            0 -1 16 -3.2560832798480988e-02</internalNodes>
          <leafValues>
            3.0987942218780518e-01 -6.4606451988220215e-01</leafValues></_>
        <_>
          <internalNodes>
            0 -1 18 -9.2498809099197388e-03</internalNodes>
          <leafValues>
            3.1824615597724915e-01 -6.2261712551116943e-01</leafValues></_>
        <_>
          <internalNodes>
            0 -1 3 -9.8615763708949089e-03</internalNodes>
          <leafValues>
            4.4494891166687012e-01 -4.6564573049545288e-01</leafValues></_></weakClassifiers></_>
    <!-- stage 3 -->
    <_>
      <maxWeakCount>5</maxWeakCount>
      <stageThreshold>-1.9125777482986450e+00</stageThreshold>
      <weakClassifiers>
        <_>
          <internalNodes>
            0 -1 40 1.9847795367240906e-02</internalNodes>
          <leafValues>
            -9.0830945968627930e-01 7.5000000000000000e-01</leafValues></_>
        <_>
          <internalNodes>
            0 -1 24 6.5475339069962502e-03</internalNodes>
          <leafValues>
            -6.8650203943252563e-01 2.8200161457061768e-01</leafValues></_>
        <_>
          <internalNodes>
            0 -1 19 5.6716147810220718e-03</internalNodes>
          <leafValues>
            -8.4342718124389648e-01 1.4779651165008545e-01</leafValues></_>
        <_>
          <internalNodes>
            0 -1 33 -5.3071294678375125e-04</internalNodes>
          <leafValues>
            -9.9048036336898804e-01 1.3881643116474152e-01</leafValues></_>
        <_>
          <internalNodes>
            0 -1 10 -3.5015821456909180e-02</internalNodes>
          <leafValues>
            3.8684445619583130e-01 -4.4945693016052246e-01</leafValues></_></weakClassifiers></_>
    <!-- stage 4 -->
    <_>
      <maxWeakCount>6</maxWeakCount>
      <stageThreshold>-1.6745362281799316e+00</stageThreshold>
      <weakClassifiers>
        <_>
          <internalNodes>
            0 -1 35 1.5122680924832821e-02</internalNodes>
          <leafValues>
            -9.0830945968627930e-01 7.5000000000000000e-01</leafValues></_>
        <_>
          <internalNodes>
            0 -1 7 3.7534981966018677e-03</internalNodes>
          <leafValues>
            -7.0871114730834961e-01 5.4433271288871765e-02</leafValues></_>
        <_>
          <internalNodes>
            0 -1 31 -1.4199001714587212e-02</internalNodes>
          <leafValues>
            4.1035991907119751e-01 -4.2994341254234314e-01</leafValues></_>
        <_>
          <internalNodes>
            0 -1 29 -1.4138985425233841e-03</internalNodes>
          <leafValues>
            4.1771504282951355e-01 -4.0862128138542175e-01</leafValues></_>
        <_>
          <internalNodes>
            0 -1 9 -1.2795676011592150e-03</internalNodes>
          <leafValues>
            4.4674381613731384e-01 -3.6118063330650330e-01</leafValues></_>
        <_>
          <internalNodes>
            0 -1 17 -1.1949461622862145e-04</internalNodes>
          <leafValues>
            3.7981602549552917e-01 -4.2883917689323425e-01</leafValues></_></weakClassifiers></_>
    <!-- stage 5 -->
    <_>
      <maxWeakCount>6</maxWeakCount>
      <stageThreshold>-1.7435419559478760e+00</stageThreshold>
      <weakClassifiers>
        <_>
          <internalNodes>
            0 -1 15 -8.6298435926437378e-02</internalNodes>
          <leafValues>
            6.3636362552642822e-01 -9.1187739372253418e-01</leafValues></_>
        <_>
          <internalNodes>
            0 -1 12 1.4707040973007679e-02</internalNodes>
          <leafValues>
            -6.1848348379135132e-01 6.9842672348022461e-01</leafValues></_>
        <_>
          <internalNodes>
            0 -1 42 -1.5849784016609192e-02</internalNodes>
          <leafValues>
            -8.0856990814208984e-01 1.4731523394584656e-01</leafValues></_>
        <_>
          <internalNodes>
            0 -1 36 -1.4652740210294724e-03</internalNodes>
          <leafValues>
            -1. 1.2417883425951004e-01</leafValues></_>
        <_>
          <internalNodes>
            0 -1 30 -5.9846101794391870e-04</internalNodes>
          <leafValues>
            -6.6639006137847900e-01 2.0452825725078583e-01</leafValues></_>
        <_>
          <internalNodes>
            0 -1 34 1.5106375212781131e-04</internalNodes>
          <leafValues>
            -6.2944179773330688e-01 2.6668173074722290e-01</leafValues></_></weakClassifiers></_>
    <!-- stage 6 -->
    <_>
      <maxWeakCount>5</maxWeakCount>
      <stageThreshold>-1.8485242128372192e+00</stageThreshold>
      <weakClassifiers>
        <_>
          <internalNodes>
            0 -1 25 1.6563490033149719e-01</internalNodes>
          <leafValues>
            -9.1371047496795654e-01 6.6666668653488159e-01</leafValues></_>
        <_>
          <internalNodes>
            0 -1 5 5.2929815137758851e-04</internalNodes>
          <leafValues>
            -7.7682751417160034e-01 -1.9505062699317932e-01</leafValues></_>
        <_>
          <internalNodes>
            0 -1 11 6.3546128571033478e-02</internalNodes>
          <leafValues>
            1.0231316089630127e-01 -7.0489114522933960e-01</leafValues></_>
        <_>
          <internalNodes>
            0 -1 43 -4.9066796898841858e-02</internalNodes>
          <leafValues>
            -1. 1.0737013816833496e-01</leafValues></_>
        <_>
          <internalNodes>
            0 -1 39 9.1751676518470049e-04</internalNodes>
          <leafValues>
            -3.6766958236694336e-01 3.9596229791641235e-01</leafValues></_></weakClassifiers></_>
    <!-- stage 7 -->
    <_>
      <maxWeakCount>7</maxWeakCount>
      <stageThreshold>-2.0399954319000244e+00</stageThreshold>
      <weakClassifiers>
        <_>
          <internalNodes>
            0 -1 1 2.0252746343612671e-01</internalNodes>
          <leafValues>
            -9.0476191043853760e-01 1.</leafValues></_>
        <_>
          <internalNodes>
            0 -1 27 1.0179670527577400e-02</internalNodes>
          <leafValues>
            -7.7228039503097534e-01 -1.4624889194965363e-01</leafValues></_>
        <_>
          <internalNodes>
            0 -1 4 1.1136412620544434e-02</internalNodes>
          <leafValues>
            -5.7689106464385986e-01 2.0240187644958496e-01</leafValues></_>
        <_>
          <internalNodes>
            0 -1 38 -1.7834818572737277e-04</internalNodes>
          <leafValues>
            -6.9965553283691406e-01 1.8352895975112915e-01</leafValues></_>
        <_>
          <internalNodes>
            0 -1 26 2.7248618425801396e-04</internalNodes>
          <leafValues>
            -6.3448375463485718e-01 2.3865808546543121e-01</leafValues></_>
        <_>
          <internalNodes>
            0 -1 28 -2.9694824479520321e-03</internalNodes>
          <leafValues>
            4.7634488344192505e-01 -3.2050341367721558e-01</leafValues></_>
        <_>
          <internalNodes>
            0 -1 23 -1.5760656679049134e-03</internalNodes>
          <leafValues>
            -6.5710705518722534e-01 2.1614593267440796e-01</leafValues></_></weakClassifiers></_></stages>
  <features>
    <_>
      <rects>
        <_>
          0 0 5 8 -1.</_>
        <_>
          0 4 5 4 2.</_></rects>
      <tilted>0</tilted></_>
    <_>
      <rects>
        <_>
          0 0 23 9 -1.</_>
        <_>
          0 3 23 3 3.</_></rects>
      <tilted>0</tilted></_>
    <_>
      <rects>
        <_>
          0 5 4 12 -1.</_>
        <_>
          2 5 2 12 2.</_></rects>
      <tilted>0</tilted></_>
    <_>
      <rects>
        <_>
          0 7 6 12 -1.</_>
        <_>
          2 7 2 12 3.</_></rects>
      <tilted>0</tilted></_>
    <_>
      <rects>
        <_>
          0 12 24 5 -1.</_>
        <_>
          8 12 8 5 3.</_></rects>
      <tilted>0</tilted></_>
    <_>
      <rects>
        <_>
          0 16 2 5 -1.</_>
        <_>
          1 16 1 5 2.</_></rects>
      <tilted>0</tilted></_>
    <_>
      <rects>
        <_>
          1 1 6 4 -1.</_>
        <_>
          1 1 3 2 2.</_>
        <_>
          4 3 3 2 2.</_></rects>
      <tilted>0</tilted></_>
    <_>
      <rects>
        <_>
          1 1 4 2 -1.</_>
        <_>
          1 2 4 1 2.</_></rects>
      <tilted>0</tilted></_>
    <_>
      <rects>
        <_>
          1 3 12 3 -1.</_>
        <_>
          7 3 6 3 2.</_></rects>
      <tilted>0</tilted></_>
    <_>
      <rects>
        <_>
          1 12 4 1 -1.</_>
        <_>
          3 12 2 1 2.</_></rects>
      <tilted>0</tilted></_>
    <_>
      <rects>
        <_>
          2 6 9 13 -1.</_>
        <_>
          5 6 3 13 3.</_></rects>
      <tilted>0</tilted></_>
    <_>
      <rects>
        <_>
          2 15 21 4 -1.</_>
        <_>
          9 15 7 4 3.</_></rects>
      <tilted>0</tilted></_>
    <_>
      <rects>
        <_>
          3 6 4 4 -1.</_>
        <_>
          3 6 2 2 2.</_>
        <_>
          5 8 2 2 2.</_></rects>
      <tilted>0</tilted></_>
    <_>
      <rects>
        <_>
          3 14 21 8 -1.</_>
        <_>
          10 14 7 8 3.</_></rects>
      <tilted>0</tilted></_>
    <_>
      <rects>
        <_>
          4 0 1 4 -1.</_>
        <_>
          4 2 1 2 2.</_></rects>
      <tilted>0</tilted></_>
    <_>
      <rects>
        <_>
          4 2 16 6 -1.</_>
        <_>
          4 4 16 2 3.</_></rects>
      <tilted>0</tilted></_>
    <_>
      <rects>
        <_>
          4 16 15 8 -1.</_>
        <_>
          4 20 15 4 2.</_></rects>
      <tilted>0</tilted></_>
    <_>
      <rects>
        <_>
          4 21 4 2 -1.</_>
        <_>
          4 21 2 1 2.</_>
        <_>
          6 22 2 1 2.</_></rects>
      <tilted>0</tilted></_>
    <_>
      <rects>
        <_>
          5 1 3 15 -1.</_>
        <_>
          5 6 3 5 3.</_></rects>
      <tilted>0</tilted></_>
    <_>
      <rects>
        <_>
          5 19 12 4 -1.</_>
        <_>
          11 19 6 4 2.</_></rects>
      <tilted>0</tilted></_>
    <_>
      <rects>
        <_>
          6 20 4 1 -1.</_>
        <_>
          8 20 2 1 2.</_></rects>
      <tilted>0</tilted></_>
    <_>
      <rects>
        <_>
          7 0 6 12 -1.</_>
        <_>
          7 4 6 4 3.</_></rects>
      <tilted>0</tilted></_>
    <_>
      <rects>
        <_>
          7 0 12 12 -1.</_>
        <_>
          7 4 12 4 3.</_></rects>
      <tilted>0</tilted></_>
    <_>
      <rects>
        <_>
          8 0 3 8 -1.</_>
        <_>
          9 0 1 8 3.</_></rects>
      <tilted>0</tilted></_>
    <_>
      <rects>
        <_>
          8 0 8 2 -1.</_>
        <_>
          8 1 8 1 2.</_></rects>
      <tilted>0</tilted></_>
    <_>
      <rects>
        <_>
          8 3 11 12 -1.</_>
        <_>
          8 7 11 4 3.</_></rects>
      <tilted>0</tilted></_>
    <_>
      <rects>
        <_>
          8 20 2 3 -1.</_>
        <_>
          9 20 1 3 2.</_></rects>
      <tilted>0</tilted></_>
    <_>
      <rects>
        <_>
          9 11 3 12 -1.</_>
        <_>
          9 15 3 4 3.</_></rects>
      <tilted>0</tilted></_>
    <_>
      <rects>
        <_>
          10 0 14 2 -1.</_>
        <_>
          10 0 7 1 2.</_>
        <_>
          17 1 7 1 2.</_></rects>
      <tilted>0</tilted></_>
    <_>
      <rects>
        <_>
          10 0 8 3 -1.</_>
        <_>
          10 1 8 1 3.</_></rects>
      <tilted>0</tilted></_>
    <_>
      <rects>
        <_>
          10 4 12 2 -1.</_>
        <_>
          16 4 6 2 2.</_></rects>
      <tilted>0</tilted></_>
    <_>
      <rects>
        <_>
          11 1 7 4 -1.</_>
        <_>
          11 3 7 2 2.</_></rects>
      <tilted>0</tilted></_>
    <_>
      <rects>
        <_>
          11 3 4 10 -1.</_>
        <_>
          13 3 2 10 2.</_></rects>
      <tilted>0</tilted></_>
    <_>
      <rects>
        <_>
          11 6 3 3 -1.</_>
        <_>
          12 6 1 3 3.</_></rects>
      <tilted>0</tilted></_>
    <_>
      <rects>
        <_>
          11 13 2 3 -1.</_>
        <_>
          12 13 1 3 2.</_></rects>
      <tilted>0</tilted></_>
    <_>
      <rects>
        <_>
          12 2 8 2 -1.</_>
        <_>
          12 3 8 1 2.</_></rects>
      <tilted>0</tilted></_>
    <_>
      <rects>
        <_>
          13 5 3 5 -1.</_>
        <_>
          14 5 1 5 3.</_></rects>
      <tilted>0</tilted></_>
    <_>
      <rects>
        <_>
          14 0 9 16 -1.</_>
        <_>
          14 8 9 8 2.</_></rects>
      <tilted>0</tilted></_>
    <_>
      <rects>
        <_>
          16 17 3 1 -1.</_>
        <_>
          17 17 1 1 3.</_></rects>
      <tilted>0</tilted></_>
    <_>
      <rects>
        <_>
          16 17 3 5 -1.</_>
        <_>
          17 17 1 5 3.</_></rects>
      <tilted>0</tilted></_>
    <_>
      <rects>
        <_>
          18 1 1 9 -1.</_>
        <_>
          18 4 1 3 3.</_></rects>
      <tilted>0</tilted></_>
    <_>
      <rects>
        <_>
          19 10 4 14 -1.</_>
        <_>
          21 10 2 14 2.</_></rects>
      <tilted>0</tilted></_>
    <_>
      <rects>
        <_>
          20 0 3 20 -1.</_>
        <_>
          20 10 3 10 2.</_></rects>
      <tilted>0</tilted></_>
    <_>
      <rects>
        <_>
          20 0 4 21 -1.</_>
        <_>
          20 7 4 7 3.</_></rects>
      <tilted>0</tilted></_></features></cascade>
</opencv_storage>
