<?xml version="1.0"?>
<opencv_storage>
<stage4>
  <maxWeakCount>9</maxWeakCount>
  <stageThreshold>-9.2301666736602783e-01</stageThreshold>
  <weakClassifiers>
    <_>
      <internalNodes>
        0 -1 1955 -1.7423725128173828e-01</internalNodes>
      <leafValues>
        9.1228067874908447e-01 -5.1215803623199463e-01</leafValues></_>
    <_>
      <internalNodes>
        0 -1 70849 3.0126985162496567e-02</internalNodes>
      <leafValues>
        -2.4745599925518036e-01 7.8272724151611328e-01</leafValues></_>
    <_>
      <internalNodes>
        0 -1 103484 1.9336599856615067e-02</internalNodes>
      <leafValues>
        -2.0497602224349976e-01 5.9586822986602783e-01</leafValues></_>
    <_>
      <internalNodes>
        0 -1 853298 -2.8143133386038244e-04</internalNodes>
      <leafValues>
        3.4292450547218323e-01 -4.0206444263458252e-01</leafValues></_>
    <_>
      <internalNodes>
        0 -1 1115007 2.1564587950706482e-03</internalNodes>
      <leafValues>
        2.4830850958824158e-01 -5.7624989748001099e-01</leafValues></_>
    <_>
      <internalNodes>
        0 -1 674589 6.5266438759863377e-03</internalNodes>
      <leafValues>
        2.5873696804046631e-01 -6.3088434934616089e-01</leafValues></_>
    <_>
      <internalNodes>
        0 -1 2579 8.2137394929304719e-04</internalNodes>
      <leafValues>
        2.2659641504287720e-01 -6.3798534870147705e-01</leafValues></_>
    <_>
      <internalNodes>
        0 -1 290797 -4.4249260099604726e-04</internalNodes>
      <leafValues>
        -7.7887916564941406e-01 1.5996374189853668e-01</leafValues></_>
    <_>
      <internalNodes>
        0 -1 921948 3.1871259212493896e-02</internalNodes>
      <leafValues>
        -2.4159786105155945e-01 5.6281083822250366e-01</leafValues></_></weakClassifiers></stage4>
</opencv_storage>
