<?xml version="1.0"?>
<opencv_storage>
<stage0>
  <maxWeakCount>8</maxWeakCount>
  <stageThreshold>-1.2932519912719727e+00</stageThreshold>
  <weakClassifiers>
    <_>
      <internalNodes>
        0 -1 23088 -6.7915469408035278e-02</internalNodes>
      <leafValues>
        7.0270270109176636e-01 -6.0099339485168457e-01</leafValues></_>
    <_>
      <internalNodes>
        0 -1 605370 1.0125391185283661e-01</internalNodes>
      <leafValues>
        -2.7052736282348633e-01 8.4354430437088013e-01</leafValues></_>
    <_>
      <internalNodes>
        0 -1 1006371 -4.7903428785502911e-03</internalNodes>
      <leafValues>
        4.4877943396568298e-01 -3.8274639844894409e-01</leafValues></_>
    <_>
      <internalNodes>
        0 -1 7866 1.2817148864269257e-01</internalNodes>
      <leafValues>
        -2.1811339259147644e-01 9.0947479009628296e-01</leafValues></_>
    <_>
      <internalNodes>
        0 -1 123251 -1.0885587334632874e-01</internalNodes>
      <leafValues>
        7.9606652259826660e-01 -2.3150156438350677e-01</leafValues></_>
    <_>
      <internalNodes>
        0 -1 1208543 5.9323874302208424e-04</internalNodes>
      <leafValues>
        2.4928221106529236e-01 -8.8480877876281738e-01</leafValues></_>
    <_>
      <internalNodes>
        0 -1 1091495 -3.5321913659572601e-02</internalNodes>
      <leafValues>
        8.1184202432632446e-01 -1.9560910761356354e-01</leafValues></_>
    <_>
      <internalNodes>
        0 -1 238683 -1.2037184089422226e-02</internalNodes>
      <leafValues>
        6.5952211618423462e-01 -2.2935329377651215e-01</leafValues></_></weakClassifiers></stage0>
</opencv_storage>
