<?xml version="1.0"?>
<opencv_storage>
<stage17>
  <maxWeakCount>14</maxWeakCount>
  <stageThreshold>-1.1791576147079468e+00</stageThreshold>
  <weakClassifiers>
    <_>
      <internalNodes>
        0 -1 19551 1.8765592575073242e-01</internalNodes>
      <leafValues>
        -5.7360404729843140e-01 1.2621359527111053e-01</leafValues></_>
    <_>
      <internalNodes>
        0 -1 60221 3.8454930763691664e-03</internalNodes>
      <leafValues>
        -3.3597305417060852e-01 2.8509438037872314e-01</leafValues></_>
    <_>
      <internalNodes>
        0 -1 101006 -9.9385395646095276e-02</internalNodes>
      <leafValues>
        -8.9524739980697632e-01 9.3897685408592224e-02</leafValues></_>
    <_>
      <internalNodes>
        0 -1 155220 8.4783867350779474e-05</internalNodes>
      <leafValues>
        -2.9274830222129822e-01 2.5733539462089539e-01</leafValues></_>
    <_>
      <internalNodes>
        0 -1 104346 -3.9761926978826523e-02</internalNodes>
      <leafValues>
        2.7467694878578186e-01 -2.8140506148338318e-01</leafValues></_>
    <_>
      <internalNodes>
        0 -1 26759 3.8855668157339096e-02</internalNodes>
      <leafValues>
        2.7288088202476501e-01 -3.3713126182556152e-01</leafValues></_>
    <_>
      <internalNodes>
        0 -1 133882 -2.7843881398439407e-03</internalNodes>
      <leafValues>
        3.1123650074005127e-01 -3.2110360264778137e-01</leafValues></_>
    <_>
      <internalNodes>
        0 -1 136397 4.1404187679290771e-02</internalNodes>
      <leafValues>
        -1.2497956305742264e-01 6.4047378301620483e-01</leafValues></_>
    <_>
      <internalNodes>
        0 -1 106568 2.4164413844118826e-05</internalNodes>
      <leafValues>
        -4.6841058135032654e-01 1.9899550080299377e-01</leafValues></_>
    <_>
      <internalNodes>
        0 -1 19878 3.7133619189262390e-02</internalNodes>
      <leafValues>
        -2.3930147290229797e-01 4.4932854175567627e-01</leafValues></_>
    <_>
      <internalNodes>
        0 -1 59997 -1.4009191654622555e-03</internalNodes>
      <leafValues>
        2.8694191575050354e-01 -2.9878157377243042e-01</leafValues></_>
    <_>
      <internalNodes>
        0 -1 15275 -4.4953119941055775e-03</internalNodes>
      <leafValues>
        3.7251028418540955e-01 -2.2943371534347534e-01</leafValues></_>
    <_>
      <internalNodes>
        0 -1 159855 2.2111861035227776e-03</internalNodes>
      <leafValues>
        -9.5033042132854462e-02 8.3232706785202026e-01</leafValues></_>
    <_>
      <internalNodes>
        0 -1 31007 -7.5897350907325745e-02</internalNodes>
      <leafValues>
        -8.0866450071334839e-01 1.2811627984046936e-01</leafValues></_></weakClassifiers></stage17>
</opencv_storage>
