<?xml version="1.0"?>
<opencv_storage>
<stage3>
  <maxWeakCount>6</maxWeakCount>
  <stageThreshold>-1.9164642095565796e+00</stageThreshold>
  <weakClassifiers>
    <_>
      <internalNodes>
        0 -1 62535 1.9069060683250427e-01</internalNodes>
      <leafValues>
        -9.0476191043853760e-01 1.</leafValues></_>
    <_>
      <internalNodes>
        0 -1 62473 -1.3611206412315369e-01</internalNodes>
      <leafValues>
        9.5988792181015015e-01 -6.5552985668182373e-01</leafValues></_>
    <_>
      <internalNodes>
        0 -1 132261 3.8288831710815430e-02</internalNodes>
      <leafValues>
        -4.9076667428016663e-01 5.3020375967025757e-01</leafValues></_>
    <_>
      <internalNodes>
        0 -1 116001 1.0466431267559528e-02</internalNodes>
      <leafValues>
        2.6846003532409668e-01 -9.2516052722930908e-01</leafValues></_>
    <_>
      <internalNodes>
        0 -1 67517 -1.7427731305360794e-02</internalNodes>
      <leafValues>
        5.8923000097274780e-01 -4.2810514569282532e-01</leafValues></_>
    <_>
      <internalNodes>
        0 -1 106587 3.7607606500387192e-03</internalNodes>
      <leafValues>
        2.9423928260803223e-01 -8.7395626306533813e-01</leafValues></_></weakClassifiers></stage3>
</opencv_storage>
