<?xml version="1.0"?>
<opencv_storage>
<stage7>
  <maxWeakCount>8</maxWeakCount>
  <stageThreshold>-1.6551107168197632e+00</stageThreshold>
  <weakClassifiers>
    <_>
      <internalNodes>
        0 -1 385888 8.8838040828704834e-03</internalNodes>
      <leafValues>
        -8.1983619928359985e-01 1.</leafValues></_>
    <_>
      <internalNodes>
        0 -1 78413 -3.2053422182798386e-03</internalNodes>
      <leafValues>
        7.9337877035140991e-01 -4.7932201623916626e-01</leafValues></_>
    <_>
      <internalNodes>
        0 -1 280357 3.8620004488620907e-05</internalNodes>
      <leafValues>
        -3.5661840438842773e-01 4.7310873866081238e-01</leafValues></_>
    <_>
      <internalNodes>
        0 -1 306485 2.0819054916501045e-03</internalNodes>
      <leafValues>
        -3.8341966271400452e-01 4.5606791973114014e-01</leafValues></_>
    <_>
      <internalNodes>
        0 -1 378884 5.4339077323675156e-03</internalNodes>
      <leafValues>
        -2.5543862581253052e-01 5.9959828853607178e-01</leafValues></_>
    <_>
      <internalNodes>
        0 -1 40951 -3.3280357718467712e-02</internalNodes>
      <leafValues>
        8.0750632286071777e-01 -1.9657981395721436e-01</leafValues></_>
    <_>
      <internalNodes>
        0 -1 311238 1.0203428100794554e-03</internalNodes>
      <leafValues>
        -2.4006752669811249e-01 6.4728015661239624e-01</leafValues></_>
    <_>
      <internalNodes>
        0 -1 382034 -1.1688414961099625e-02</internalNodes>
      <leafValues>
        8.2429128885269165e-01 -1.9652916491031647e-01</leafValues></_></weakClassifiers></stage7>
</opencv_storage>
