<?xml version="1.0"?>
<opencv_storage>
<stage1>
  <maxWeakCount>6</maxWeakCount>
  <stageThreshold>-1.4621653556823730e+00</stageThreshold>
  <weakClassifiers>
    <_>
      <internalNodes>
        0 -1 82658 -2.2098933160305023e-01</internalNodes>
      <leafValues>
        7.6923079788684845e-02 -8.9898991584777832e-01</leafValues></_>
    <_>
      <internalNodes>
        0 -1 20464 -1.1462506372481585e-03</internalNodes>
      <leafValues>
        1.6776318848133087e-01 -6.9298183917999268e-01</leafValues></_>
    <_>
      <internalNodes>
        0 -1 42259 -1.4363554120063782e-01</internalNodes>
      <leafValues>
        5.5808228254318237e-01 -4.4674161076545715e-01</leafValues></_>
    <_>
      <internalNodes>
        0 -1 360558 1.9232658087275922e-04</internalNodes>
      <leafValues>
        -2.9072818160057068e-01 7.1703439950942993e-01</leafValues></_>
    <_>
      <internalNodes>
        0 -1 288785 2.4401454720646143e-04</internalNodes>
      <leafValues>
        -4.9354091286659241e-01 4.2581745982170105e-01</leafValues></_>
    <_>
      <internalNodes>
        0 -1 390055 7.8298128210008144e-04</internalNodes>
      <leafValues>
        -3.7029829621315002e-01 5.0007212162017822e-01</leafValues></_></weakClassifiers></stage1>
</opencv_storage>
