<?xml version="1.0"?>
<opencv_storage>
<stage2>
  <maxWeakCount>6</maxWeakCount>
  <stageThreshold>-1.3904271125793457e+00</stageThreshold>
  <weakClassifiers>
    <_>
      <internalNodes>
        0 -1 1169771 3.2267086207866669e-02</internalNodes>
      <leafValues>
        -7.2432434558868408e-01 7.3124998807907104e-01</leafValues></_>
    <_>
      <internalNodes>
        0 -1 65992 -8.5085704922676086e-02</internalNodes>
      <leafValues>
        6.5854126214981079e-01 -5.6241673231124878e-01</leafValues></_>
    <_>
      <internalNodes>
        0 -1 122665 -1.5303850173950195e-02</internalNodes>
      <leafValues>
        5.1581221818923950e-01 -5.8442652225494385e-01</leafValues></_>
    <_>
      <internalNodes>
        0 -1 92588 -7.9997777938842773e-02</internalNodes>
      <leafValues>
        6.8575233221054077e-01 -4.4265970587730408e-01</leafValues></_>
    <_>
      <internalNodes>
        0 -1 1051226 1.0870136320590973e-02</internalNodes>
      <leafValues>
        -6.0052770376205444e-01 5.4492926597595215e-01</leafValues></_>
    <_>
      <internalNodes>
        0 -1 335216 1.7420236021280289e-02</internalNodes>
      <leafValues>
        -7.5016355514526367e-01 4.2368918657302856e-01</leafValues></_></weakClassifiers></stage2>
</opencv_storage>
