<?xml version="1.0"?>
<opencv_storage>
<stage6>
  <maxWeakCount>9</maxWeakCount>
  <stageThreshold>-1.3403012752532959e+00</stageThreshold>
  <weakClassifiers>
    <_>
      <internalNodes>
        0 -1 153288 5.3283270448446274e-02</internalNodes>
      <leafValues>
        -6.5490943193435669e-01 3.0708661675453186e-01</leafValues></_>
    <_>
      <internalNodes>
        0 -1 2402 -1.7917281016707420e-02</internalNodes>
      <leafValues>
        1.9914975762367249e-01 -6.4086312055587769e-01</leafValues></_>
    <_>
      <internalNodes>
        0 -1 63906 -1.3627872802317142e-02</internalNodes>
      <leafValues>
        3.3044707775115967e-01 -4.9630042910575867e-01</leafValues></_>
    <_>
      <internalNodes>
        0 -1 1099 -2.4152232706546783e-01</internalNodes>
      <leafValues>
        4.4576051831245422e-01 -5.1997405290603638e-01</leafValues></_>
    <_>
      <internalNodes>
        0 -1 14101 1.7797392606735229e-01</internalNodes>
      <leafValues>
        -2.1375423669815063e-01 7.6129180192947388e-01</leafValues></_>
    <_>
      <internalNodes>
        0 -1 90065 4.2837881483137608e-04</internalNodes>
      <leafValues>
        2.4116848409175873e-01 -6.0099995136260986e-01</leafValues></_>
    <_>
      <internalNodes>
        0 -1 48480 6.2421999871730804e-02</internalNodes>
      <leafValues>
        -4.5852559804916382e-01 3.2609352469444275e-01</leafValues></_>
    <_>
      <internalNodes>
        0 -1 141217 4.3723159469664097e-03</internalNodes>
      <leafValues>
        -5.9342569112777710e-01 2.7078309655189514e-01</leafValues></_>
    <_>
      <internalNodes>
        0 -1 653 -6.2489078845828772e-04</internalNodes>
      <leafValues>
        2.4993465840816498e-01 -6.1217015981674194e-01</leafValues></_></weakClassifiers></stage6>
</opencv_storage>
