<?xml version="1.0"?>
<opencv_storage>
<stage9>
  <maxWeakCount>11</maxWeakCount>
  <stageThreshold>-8.6969876289367676e-01</stageThreshold>
  <weakClassifiers>
    <_>
      <internalNodes>
        0 -1 159161 1.3800781220197678e-02</internalNodes>
      <leafValues>
        -6.0717487335205078e-01 3.3968254923820496e-01</leafValues></_>
    <_>
      <internalNodes>
        0 -1 629 -2.8992766141891479e-01</internalNodes>
      <leafValues>
        3.5336819291114807e-01 -4.6228337287902832e-01</leafValues></_>
    <_>
      <internalNodes>
        0 -1 10233 2.0583344623446465e-02</internalNodes>
      <leafValues>
        -5.0468343496322632e-01 2.8727596998214722e-01</leafValues></_>
    <_>
      <internalNodes>
        0 -1 58617 -6.4028687775135040e-03</internalNodes>
      <leafValues>
        4.8624768853187561e-01 -3.1401395797729492e-01</leafValues></_>
    <_>
      <internalNodes>
        0 -1 14318 -7.4680149555206299e-03</internalNodes>
      <leafValues>
        2.7301904559135437e-01 -5.5942839384078979e-01</leafValues></_>
    <_>
      <internalNodes>
        0 -1 5098 -3.0673015862703323e-03</internalNodes>
      <leafValues>
        2.3180195689201355e-01 -5.5751919746398926e-01</leafValues></_>
    <_>
      <internalNodes>
        0 -1 144296 5.5116560310125351e-02</internalNodes>
      <leafValues>
        -4.1222089529037476e-01 3.3786314725875854e-01</leafValues></_>
    <_>
      <internalNodes>
        0 -1 69440 5.5091068148612976e-02</internalNodes>
      <leafValues>
        -2.8766480088233948e-01 5.2556830644607544e-01</leafValues></_>
    <_>
      <internalNodes>
        0 -1 4772 -1.4912104606628418e-01</internalNodes>
      <leafValues>
        8.9532709121704102e-01 -1.6320468485355377e-01</leafValues></_>
    <_>
      <internalNodes>
        0 -1 153330 9.6897035837173462e-03</internalNodes>
      <leafValues>
        2.0852622389793396e-01 -7.6804751157760620e-01</leafValues></_>
    <_>
      <internalNodes>
        0 -1 147966 5.6379307061433792e-03</internalNodes>
      <leafValues>
        -2.6068040728569031e-01 6.5099287033081055e-01</leafValues></_></weakClassifiers></stage9>
</opencv_storage>
