<?xml version="1.0"?>
<opencv_storage>
<stage19>
  <maxWeakCount>14</maxWeakCount>
  <stageThreshold>-1.2422504425048828e+00</stageThreshold>
  <weakClassifiers>
    <_>
      <internalNodes>
        0 -1 577861 1.7735299468040466e-01</internalNodes>
      <leafValues>
        -5.0952380895614624e-01 4.8421052098274231e-01</leafValues></_>
    <_>
      <internalNodes>
        0 -1 229926 -2.7888291515409946e-03</internalNodes>
      <leafValues>
        4.4028457999229431e-01 -2.0464447140693665e-01</leafValues></_>
    <_>
      <internalNodes>
        0 -1 132594 -1.9260577391833067e-04</internalNodes>
      <leafValues>
        3.2138931751251221e-01 -2.9388260841369629e-01</leafValues></_>
    <_>
      <internalNodes>
        0 -1 531097 -3.3646295778453350e-03</internalNodes>
      <leafValues>
        -7.1412229537963867e-01 1.3416627049446106e-01</leafValues></_>
    <_>
      <internalNodes>
        0 -1 38434 2.0587982726283371e-04</internalNodes>
      <leafValues>
        2.2974288463592529e-01 -3.9059761166572571e-01</leafValues></_>
    <_>
      <internalNodes>
        0 -1 569340 -1.2174865332781337e-05</internalNodes>
      <leafValues>
        3.0179101228713989e-01 -3.1028243899345398e-01</leafValues></_>
    <_>
      <internalNodes>
        0 -1 502655 2.0442087203264236e-02</internalNodes>
      <leafValues>
        1.0700093954801559e-01 -8.0653518438339233e-01</leafValues></_>
    <_>
      <internalNodes>
        0 -1 653197 -3.9291470311582088e-03</internalNodes>
      <leafValues>
        3.2761019468307495e-01 -2.7192768454551697e-01</leafValues></_>
    <_>
      <internalNodes>
        0 -1 725860 -4.0068444795906544e-03</internalNodes>
      <leafValues>
        -5.5781453847885132e-01 1.7057056725025177e-01</leafValues></_>
    <_>
      <internalNodes>
        0 -1 724054 -2.1017857361584902e-03</internalNodes>
      <leafValues>
        6.3079905509948730e-01 -1.5435743331909180e-01</leafValues></_>
    <_>
      <internalNodes>
        0 -1 193089 -1.1482488363981247e-02</internalNodes>
      <leafValues>
        3.9846163988113403e-01 -2.2152996063232422e-01</leafValues></_>
    <_>
      <internalNodes>
        0 -1 605666 -9.3700783327221870e-04</internalNodes>
      <leafValues>
        3.6153265833854675e-01 -2.8518840670585632e-01</leafValues></_>
    <_>
      <internalNodes>
        0 -1 39953 6.3141365535557270e-04</internalNodes>
      <leafValues>
        1.2371896952390671e-01 -7.0738506317138672e-01</leafValues></_>
    <_>
      <internalNodes>
        0 -1 20090 2.7897374704480171e-02</internalNodes>
      <leafValues>
        -1.6482716798782349e-01 6.3903898000717163e-01</leafValues></_></weakClassifiers></stage19>
</opencv_storage>
