<?xml version="1.0"?>
<opencv_storage>
<stage8>
  <maxWeakCount>11</maxWeakCount>
  <stageThreshold>-1.2415388822555542e+00</stageThreshold>
  <weakClassifiers>
    <_>
      <internalNodes>
        0 -1 121736 5.6043446063995361e-02</internalNodes>
      <leafValues>
        -7.0601338148117065e-01 1.2030075490474701e-01</leafValues></_>
    <_>
      <internalNodes>
        0 -1 158863 1.8713530153036118e-02</internalNodes>
      <leafValues>
        -3.9349398016929626e-01 5.2985471487045288e-01</leafValues></_>
    <_>
      <internalNodes>
        0 -1 26125 1.5412177890539169e-03</internalNodes>
      <leafValues>
        1.6176602244377136e-01 -7.7858787775039673e-01</leafValues></_>
    <_>
      <internalNodes>
        0 -1 6099 -1.9977763295173645e-02</internalNodes>
      <leafValues>
        3.2522720098495483e-01 -3.9595618844032288e-01</leafValues></_>
    <_>
      <internalNodes>
        0 -1 97779 -4.3272301554679871e-02</internalNodes>
      <leafValues>
        5.8572810888290405e-01 -1.9135893881320953e-01</leafValues></_>
    <_>
      <internalNodes>
        0 -1 18543 3.8964979350566864e-02</internalNodes>
      <leafValues>
        1.1786098033189774e-01 -9.7432529926300049e-01</leafValues></_>
    <_>
      <internalNodes>
        0 -1 15315 -1.0852521285414696e-02</internalNodes>
      <leafValues>
        2.1397417783737183e-01 -5.3973394632339478e-01</leafValues></_>
    <_>
      <internalNodes>
        0 -1 14873 -9.1292578727006912e-03</internalNodes>
      <leafValues>
        3.1473046541213989e-01 -4.3373733758926392e-01</leafValues></_>
    <_>
      <internalNodes>
        0 -1 162104 2.4447726900689304e-05</internalNodes>
      <leafValues>
        -4.1119796037673950e-01 3.5039579868316650e-01</leafValues></_>
    <_>
      <internalNodes>
        0 -1 66 -3.9248499087989330e-03</internalNodes>
      <leafValues>
        4.5956104993820190e-01 -3.2541966438293457e-01</leafValues></_>
    <_>
      <internalNodes>
        0 -1 27385 -1.4599316753447056e-02</internalNodes>
      <leafValues>
        6.4976674318313599e-01 -2.0536662638187408e-01</leafValues></_></weakClassifiers></stage8>
</opencv_storage>
