<?xml version="1.0"?>
<opencv_storage>
<stage16>
  <maxWeakCount>15</maxWeakCount>
  <stageThreshold>-1.2597172260284424e+00</stageThreshold>
  <weakClassifiers>
    <_>
      <internalNodes>
        0 -1 614 -4.8486071825027466e-01</internalNodes>
      <leafValues>
        7.1681416034698486e-01 -4.7195214033126831e-01</leafValues></_>
    <_>
      <internalNodes>
        0 -1 112626 -2.2526918910443783e-03</internalNodes>
      <leafValues>
        2.0305877923965454e-01 -4.4605916738510132e-01</leafValues></_>
    <_>
      <internalNodes>
        0 -1 113706 -7.8038118779659271e-02</internalNodes>
      <leafValues>
        -8.5055065155029297e-01 1.2105268239974976e-01</leafValues></_>
    <_>
      <internalNodes>
        0 -1 12862 -1.9539233297109604e-02</internalNodes>
      <leafValues>
        -9.3896281719207764e-01 1.2740299105644226e-01</leafValues></_>
    <_>
      <internalNodes>
        0 -1 26513 2.1659085154533386e-01</internalNodes>
      <leafValues>
        -1.8266314268112183e-01 6.4299148321151733e-01</leafValues></_>
    <_>
      <internalNodes>
        0 -1 90064 7.6459150295704603e-04</internalNodes>
      <leafValues>
        -2.0496435463428497e-01 3.9928483963012695e-01</leafValues></_>
    <_>
      <internalNodes>
        0 -1 162065 6.8131496664136648e-04</internalNodes>
      <leafValues>
        1.1268918961286545e-01 -7.2649759054183960e-01</leafValues></_>
    <_>
      <internalNodes>
        0 -1 90165 -9.7974529489874840e-03</internalNodes>
      <leafValues>
        3.2072335481643677e-01 -2.3590536415576935e-01</leafValues></_>
    <_>
      <internalNodes>
        0 -1 121724 3.1220212578773499e-02</internalNodes>
      <leafValues>
        -9.3999922275543213e-02 7.2555440664291382e-01</leafValues></_>
    <_>
      <internalNodes>
        0 -1 5356 9.9958693608641624e-03</internalNodes>
      <leafValues>
        -9.2846311628818512e-02 7.5149577856063843e-01</leafValues></_>
    <_>
      <internalNodes>
        0 -1 38848 -8.8420482352375984e-03</internalNodes>
      <leafValues>
        -7.1651297807693481e-01 1.1896513402462006e-01</leafValues></_>
    <_>
      <internalNodes>
        0 -1 51849 -3.0241447687149048e-01</internalNodes>
      <leafValues>
        8.1966233253479004e-01 -1.0144042968750000e-01</leafValues></_>
    <_>
      <internalNodes>
        0 -1 83657 -6.6604942549020052e-04</internalNodes>
      <leafValues>
        3.4444624185562134e-01 -2.0317807793617249e-01</leafValues></_>
    <_>
      <internalNodes>
        0 -1 13372 -2.7073559976997785e-05</internalNodes>
      <leafValues>
        3.3359196782112122e-01 -2.1552701294422150e-01</leafValues></_>
    <_>
      <internalNodes>
        0 -1 39972 1.4275586232542992e-02</internalNodes>
      <leafValues>
        -1.0440452396869659e-01 7.2499287128448486e-01</leafValues></_></weakClassifiers></stage16>
</opencv_storage>
