<?xml version="1.0"?>
<opencv_storage>
<stage2>
  <maxWeakCount>13</maxWeakCount>
  <stageThreshold>-1.1803411245346069e+00</stageThreshold>
  <weakClassifiers>
    <_>
      <internalNodes>
        0 -1 3663 -3.3650475740432739e-01</internalNodes>
      <leafValues>
        7.2602736949920654e-01 -5.0306749343872070e-01</leafValues></_>
    <_>
      <internalNodes>
        0 -1 30149 1.7327782511711121e-01</internalNodes>
      <leafValues>
        -2.6988744735717773e-01 6.5016865730285645e-01</leafValues></_>
    <_>
      <internalNodes>
        0 -1 67271 -2.3506048601120710e-03</internalNodes>
      <leafValues>
        4.2901039123535156e-01 -2.0723883807659149e-01</leafValues></_>
    <_>
      <internalNodes>
        0 -1 71342 -9.7290009260177612e-02</internalNodes>
      <leafValues>
        5.4279071092605591e-01 -1.8387477099895477e-01</leafValues></_>
    <_>
      <internalNodes>
        0 -1 89777 9.8455063998699188e-03</internalNodes>
      <leafValues>
        1.2142281979322433e-01 -8.8719254732131958e-01</leafValues></_>
    <_>
      <internalNodes>
        0 -1 86988 6.0049062594771385e-03</internalNodes>
      <leafValues>
        1.1630220711231232e-01 -8.5215985774993896e-01</leafValues></_>
    <_>
      <internalNodes>
        0 -1 13022 -3.2418535556644201e-03</internalNodes>
      <leafValues>
        -9.1400873661041260e-01 7.0985674858093262e-02</leafValues></_>
    <_>
      <internalNodes>
        0 -1 143521 4.6996536548249424e-04</internalNodes>
      <leafValues>
        -2.3458923399448395e-01 4.1063451766967773e-01</leafValues></_>
    <_>
      <internalNodes>
        0 -1 26503 1.1321397870779037e-01</internalNodes>
      <leafValues>
        -1.4037653803825378e-01 7.0774477720260620e-01</leafValues></_>
    <_>
      <internalNodes>
        0 -1 77835 3.2174465013667941e-04</internalNodes>
      <leafValues>
        -2.1694819629192352e-01 4.1687500476837158e-01</leafValues></_>
    <_>
      <internalNodes>
        0 -1 10027 -1.5641617355868220e-03</internalNodes>
      <leafValues>
        -8.1101793050765991e-01 1.2231525033712387e-01</leafValues></_>
    <_>
      <internalNodes>
        0 -1 6269 8.6713388562202454e-02</internalNodes>
      <leafValues>
        -1.8701225519180298e-01 5.8622175455093384e-01</leafValues></_>
    <_>
      <internalNodes>
        0 -1 20561 1.9773555919528008e-02</internalNodes>
      <leafValues>
        -2.3493859171867371e-01 4.6174699068069458e-01</leafValues></_></weakClassifiers></stage2>
</opencv_storage>
