<?xml version="1.0"?>
<opencv_storage>
<stage4>
  <maxWeakCount>8</maxWeakCount>
  <stageThreshold>-2.0495352745056152e+00</stageThreshold>
  <weakClassifiers>
    <_>
      <internalNodes>
        0 -1 22182 -3.8626559544354677e-03</internalNodes>
      <leafValues>
        3.7931033968925476e-01 -8.4934085607528687e-01</leafValues></_>
    <_>
      <internalNodes>
        0 -1 106579 -1.1255776043981314e-03</internalNodes>
      <leafValues>
        4.6927383542060852e-01 -5.0952774286270142e-01</leafValues></_>
    <_>
      <internalNodes>
        0 -1 139077 1.1340502533130348e-04</internalNodes>
      <leafValues>
        -4.5905673503875732e-01 3.8384175300598145e-01</leafValues></_>
    <_>
      <internalNodes>
        0 -1 121480 1.7740388284437358e-04</internalNodes>
      <leafValues>
        -6.4554476737976074e-01 2.7362507581710815e-01</leafValues></_>
    <_>
      <internalNodes>
        0 -1 11689 -1.1383891105651855e-02</internalNodes>
      <leafValues>
        3.3178749680519104e-01 -5.2227938175201416e-01</leafValues></_>
    <_>
      <internalNodes>
        0 -1 128595 -9.4376900233328342e-04</internalNodes>
      <leafValues>
        5.1954126358032227e-01 -3.8259503245353699e-01</leafValues></_>
    <_>
      <internalNodes>
        0 -1 158572 -6.8198777735233307e-03</internalNodes>
      <leafValues>
        8.2787048816680908e-01 -2.7239552140235901e-01</leafValues></_>
    <_>
      <internalNodes>
        0 -1 3061 5.0893845036625862e-03</internalNodes>
      <leafValues>
        -2.3010125756263733e-01 7.2752588987350464e-01</leafValues></_></weakClassifiers></stage4>
</opencv_storage>
