<?xml version="1.0"?>
<opencv_storage>
<cascade>
  <stageType>BOOST</stageType>
  <featureType>HAAR</featureType>
  <height>24</height>
  <width>24</width>
  <stageParams>
    <boostType>GAB</boostType>
    <minHitRate>9.9500000476837158e-01</minHitRate>
    <maxFalseAlarm>5.0000000000000000e-01</maxFalseAlarm>
    <weightTrimRate>9.4999999999999996e-01</weightTrimRate>
    <maxDepth>1</maxDepth>
    <maxWeakCount>100</maxWeakCount></stageParams>
  <featureParams>
    <maxCatCount>0</maxCatCount>
    <featSize>1</featSize>
    <mode>BASIC</mode></featureParams>
  <stageNum>5</stageNum>
  <stages>
    <!-- stage 0 -->
    <_>
      <maxWeakCount>3</maxWeakCount>
      <stageThreshold>-1.4644736051559448e+00</stageThreshold>
      <weakClassifiers>
        <_>
          <internalNodes>
            0 -1 5 -8.8776059448719025e-02</internalNodes>
          <leafValues>
            8.9999997615814209e-01 -9.5882350206375122e-01</leafValues></_>
        <_>
          <internalNodes>
            0 -1 2 -1.3127489387989044e-01</internalNodes>
          <leafValues>
            4.0347918868064880e-01 -8.8761788606643677e-01</leafValues></_>
        <_>
          <internalNodes>
            0 -1 8 -3.3030672930181026e-03</internalNodes>
          <leafValues>
            3.8196778297424316e-01 -9.0604907274246216e-01</leafValues></_></weakClassifiers></_>
    <!-- stage 1 -->
    <_>
      <maxWeakCount>4</maxWeakCount>
      <stageThreshold>-2.0252625942230225e+00</stageThreshold>
      <weakClassifiers>
        <_>
          <internalNodes>
            0 -1 1 -7.8247308731079102e-02</internalNodes>
          <leafValues>
            1. -9.5694714784622192e-01</leafValues></_>
        <_>
          <internalNodes>
            0 -1 4 -1.8742676079273224e-01</internalNodes>
          <leafValues>
            9.4268882274627686e-01 -8.4925556182861328e-01</leafValues></_>
        <_>
          <internalNodes>
            0 -1 9 -1.2772482633590698e-01</internalNodes>
          <leafValues>
            5.9971016645431519e-01 -8.2380247116088867e-01</leafValues></_>
        <_>
          <internalNodes>
            0 -1 17 4.1136710206046700e-04</internalNodes>
          <leafValues>
            -7.0874613523483276e-01 6.0474258661270142e-01</leafValues></_></weakClassifiers></_>
    <!-- stage 2 -->
    <_>
      <maxWeakCount>3</maxWeakCount>
      <stageThreshold>-1.5141433477401733e+00</stageThreshold>
      <weakClassifiers>
        <_>
          <internalNodes>
            0 -1 0 -4.3940477073192596e-02</internalNodes>
          <leafValues>
            1. -9.5694714784622192e-01</leafValues></_>
        <_>
          <internalNodes>
            0 -1 11 -1.1984208971261978e-01</internalNodes>
          <leafValues>
            9.1524749994277954e-01 -8.4911572933197021e-01</leafValues></_>
        <_>
          <internalNodes>
            0 -1 12 -6.0637725982815027e-04</internalNodes>
          <leafValues>
            2.9191952943801880e-01 -8.6869114637374878e-01</leafValues></_></weakClassifiers></_>
    <!-- stage 3 -->
    <_>
      <maxWeakCount>4</maxWeakCount>
      <stageThreshold>-1.7753494977951050e+00</stageThreshold>
      <weakClassifiers>
        <_>
          <internalNodes>
            0 -1 10 -9.8906241357326508e-02</internalNodes>
          <leafValues>
            8.0952382087707520e-01 -9.5878314971923828e-01</leafValues></_>
        <_>
          <internalNodes>
            0 -1 13 1.1996473371982574e-01</internalNodes>
          <leafValues>
            -8.0269283056259155e-01 1.</leafValues></_>
        <_>
          <internalNodes>
            0 -1 6 -1.8956689536571503e-01</internalNodes>
          <leafValues>
            8.6737889051437378e-01 -6.0412359237670898e-01</leafValues></_>
        <_>
          <internalNodes>
            0 -1 15 -8.7947640568017960e-03</internalNodes>
          <leafValues>
            5.9024995565414429e-01 -7.3612689971923828e-01</leafValues></_></weakClassifiers></_>
    <!-- stage 4 -->
    <_>
      <maxWeakCount>4</maxWeakCount>
      <stageThreshold>-1.7937233448028564e+00</stageThreshold>
      <weakClassifiers>
        <_>
          <internalNodes>
            0 -1 3 -1.4804866909980774e-01</internalNodes>
          <leafValues>
            1. -9.5503419637680054e-01</leafValues></_>
        <_>
          <internalNodes>
            0 -1 7 -2.3022913932800293e-01</internalNodes>
          <leafValues>
            7.2186511754989624e-01 -8.4838283061981201e-01</leafValues></_>
        <_>
          <internalNodes>
            0 -1 14 1.3671649619936943e-02</internalNodes>
          <leafValues>
            -6.4996248483657837e-01 7.7211272716522217e-01</leafValues></_>
        <_>
          <internalNodes>
            0 -1 16 1.3484139926731586e-03</internalNodes>
          <leafValues>
            -5.9317648410797119e-01 6.5965622663497925e-01</leafValues></_></weakClassifiers></_></stages>
  <features>
    <_>
      <rects>
        <_>
          0 0 15 2 -1.</_>
        <_>
          5 0 5 2 3.</_></rects>
      <tilted>0</tilted></_>
    <_>
      <rects>
        <_>
          0 0 10 7 -1.</_>
        <_>
          5 0 5 7 2.</_></rects>
      <tilted>0</tilted></_>
    <_>
      <rects>
        <_>
          0 0 15 19 -1.</_>
        <_>
          5 0 5 19 3.</_></rects>
      <tilted>0</tilted></_>
    <_>
      <rects>
        <_>
          0 0 21 4 -1.</_>
        <_>
          7 0 7 4 3.</_></rects>
      <tilted>0</tilted></_>
    <_>
      <rects>
        <_>
          0 0 14 22 -1.</_>
        <_>
          0 0 7 11 2.</_>
        <_>
          7 11 7 11 2.</_></rects>
      <tilted>0</tilted></_>
    <_>
      <rects>
        <_>
          0 0 24 2 -1.</_>
        <_>
          8 0 8 2 3.</_></rects>
      <tilted>0</tilted></_>
    <_>
      <rects>
        <_>
          0 0 24 9 -1.</_>
        <_>
          8 0 8 9 3.</_></rects>
      <tilted>0</tilted></_>
    <_>
      <rects>
        <_>
          0 0 20 24 -1.</_>
        <_>
          0 0 10 12 2.</_>
        <_>
          10 12 10 12 2.</_></rects>
      <tilted>0</tilted></_>
    <_>
      <rects>
        <_>
          0 14 24 4 -1.</_>
        <_>
          0 16 24 2 2.</_></rects>
      <tilted>0</tilted></_>
    <_>
      <rects>
        <_>
          1 9 21 13 -1.</_>
        <_>
          8 9 7 13 3.</_></rects>
      <tilted>0</tilted></_>
    <_>
      <rects>
        <_>
          2 0 18 4 -1.</_>
        <_>
          8 0 6 4 3.</_></rects>
      <tilted>0</tilted></_>
    <_>
      <rects>
        <_>
          2 0 14 8 -1.</_>
        <_>
          9 0 7 8 2.</_></rects>
      <tilted>0</tilted></_>
    <_>
      <rects>
        <_>
          3 12 2 4 -1.</_>
        <_>
          4 12 1 4 2.</_></rects>
      <tilted>0</tilted></_>
    <_>
      <rects>
        <_>
          4 0 12 7 -1.</_>
        <_>
          10 0 6 7 2.</_></rects>
      <tilted>0</tilted></_>
    <_>
      <rects>
        <_>
          6 0 12 6 -1.</_>
        <_>
          6 0 6 3 2.</_>
        <_>
          12 3 6 3 2.</_></rects>
      <tilted>0</tilted></_>
    <_>
      <rects>
        <_>
          7 11 12 6 -1.</_>
        <_>
          7 14 12 3 2.</_></rects>
      <tilted>0</tilted></_>
    <_>
      <rects>
        <_>
          9 3 2 9 -1.</_>
        <_>
          9 6 2 3 3.</_></rects>
      <tilted>0</tilted></_>
    <_>
      <rects>
        <_>
          9 20 3 2 -1.</_>
        <_>
          9 21 3 1 2.</_></rects>
      <tilted>0</tilted></_></features></cascade>
</opencv_storage>
