<?xml version="1.0"?>
<opencv_storage>
<stage13>
  <maxWeakCount>7</maxWeakCount>
  <stageThreshold>-1.1069122552871704e+00</stageThreshold>
  <weakClassifiers>
    <_>
      <internalNodes>
        0 -1 1089499 7.7751263976097107e-02</internalNodes>
      <leafValues>
        -6.4521741867065430e-01 6.1428570747375488e-01</leafValues></_>
    <_>
      <internalNodes>
        0 -1 1222408 9.2272981419228017e-05</internalNodes>
      <leafValues>
        -5.2161186933517456e-01 4.6550881862640381e-01</leafValues></_>
    <_>
      <internalNodes>
        0 -1 796859 3.4483424387872219e-03</internalNodes>
      <leafValues>
        3.8748055696487427e-01 -5.5152177810668945e-01</leafValues></_>
    <_>
      <internalNodes>
        0 -1 91565 2.3505217395722866e-03</internalNodes>
      <leafValues>
        4.0056154131889343e-01 -5.5401045083999634e-01</leafValues></_>
    <_>
      <internalNodes>
        0 -1 9945 -7.9544484615325928e-02</internalNodes>
      <leafValues>
        5.8920043706893921e-01 -3.9567390084266663e-01</leafValues></_>
    <_>
      <internalNodes>
        0 -1 691149 9.0131181059405208e-04</internalNodes>
      <leafValues>
        3.9399731159210205e-01 -6.0261219739913940e-01</leafValues></_>
    <_>
      <internalNodes>
        0 -1 341622 6.0513761127367616e-04</internalNodes>
      <leafValues>
        -7.9404658079147339e-01 2.7016106247901917e-01</leafValues></_></weakClassifiers></stage13>
</opencv_storage>
