<?xml version="1.0"?>
<opencv_storage>
<stage14>
  <maxWeakCount>18</maxWeakCount>
  <stageThreshold>-1.2557876110076904e+00</stageThreshold>
  <weakClassifiers>
    <_>
      <internalNodes>
        0 -1 152357 8.3708785474300385e-02</internalNodes>
      <leafValues>
        -4.8035284876823425e-01 2.4137930572032928e-01</leafValues></_>
    <_>
      <internalNodes>
        0 -1 144482 4.2456360533833504e-03</internalNodes>
      <leafValues>
        -1.8127681314945221e-01 3.9728042483329773e-01</leafValues></_>
    <_>
      <internalNodes>
        0 -1 154428 -6.2337319832295179e-04</internalNodes>
      <leafValues>
        3.0277433991432190e-01 -1.9379723072052002e-01</leafValues></_>
    <_>
      <internalNodes>
        0 -1 79524 -4.9863765016198158e-03</internalNodes>
      <leafValues>
        -8.0965381860733032e-01 7.1316726505756378e-02</leafValues></_>
    <_>
      <internalNodes>
        0 -1 88536 -2.4622717319289222e-05</internalNodes>
      <leafValues>
        2.8399857878684998e-01 -2.4238148331642151e-01</leafValues></_>
    <_>
      <internalNodes>
        0 -1 159173 -3.2803367357701063e-03</internalNodes>
      <leafValues>
        4.4838592410087585e-01 -1.5975372493267059e-01</leafValues></_>
    <_>
      <internalNodes>
        0 -1 28186 1.9934423267841339e-02</internalNodes>
      <leafValues>
        -1.1429207026958466e-01 5.3764367103576660e-01</leafValues></_>
    <_>
      <internalNodes>
        0 -1 132401 -1.0879563633352518e-03</internalNodes>
      <leafValues>
        2.7309903502464294e-01 -2.4832397699356079e-01</leafValues></_>
    <_>
      <internalNodes>
        0 -1 9449 1.3089198619127274e-03</internalNodes>
      <leafValues>
        2.0882619917392731e-01 -3.4596100449562073e-01</leafValues></_>
    <_>
      <internalNodes>
        0 -1 113664 -1.1363888625055552e-03</internalNodes>
      <leafValues>
        2.8280329704284668e-01 -2.4752241373062134e-01</leafValues></_>
    <_>
      <internalNodes>
        0 -1 49468 -1.1371901928214356e-04</internalNodes>
      <leafValues>
        2.6151949167251587e-01 -2.5755637884140015e-01</leafValues></_>
    <_>
      <internalNodes>
        0 -1 6801 -1.1387444101274014e-02</internalNodes>
      <leafValues>
        3.1693613529205322e-01 -2.3331034183502197e-01</leafValues></_>
    <_>
      <internalNodes>
        0 -1 31328 4.3427530676126480e-02</internalNodes>
      <leafValues>
        -1.4153453707695007e-01 5.6860768795013428e-01</leafValues></_>
    <_>
      <internalNodes>
        0 -1 150981 -2.7210240659769624e-05</internalNodes>
      <leafValues>
        2.5206327438354492e-01 -2.5609564781188965e-01</leafValues></_>
    <_>
      <internalNodes>
        0 -1 105474 -1.0576137341558933e-02</internalNodes>
      <leafValues>
        -6.6039139032363892e-01 9.7756370902061462e-02</leafValues></_>
    <_>
      <internalNodes>
        0 -1 4781 -1.3320760428905487e-01</internalNodes>
      <leafValues>
        5.0192779302597046e-01 -1.4594244956970215e-01</leafValues></_>
    <_>
      <internalNodes>
        0 -1 25631 -1.6487110406160355e-04</internalNodes>
      <leafValues>
        2.5173607468605042e-01 -2.6908019185066223e-01</leafValues></_>
    <_>
      <internalNodes>
        0 -1 49326 -1.1990017956122756e-03</internalNodes>
      <leafValues>
        2.6971426606178284e-01 -2.5554335117340088e-01</leafValues></_></weakClassifiers></stage14>
</opencv_storage>
