<?xml version="1.0"?>
<opencv_storage>
<stage6>
  <maxWeakCount>15</maxWeakCount>
  <stageThreshold>-1.2972518205642700e+00</stageThreshold>
  <weakClassifiers>
    <_>
      <internalNodes>
        0 -1 145831 1.4393579959869385e-01</internalNodes>
      <leafValues>
        -4.5127436518669128e-01 6.1445784568786621e-01</leafValues></_>
    <_>
      <internalNodes>
        0 -1 431 -5.5076815187931061e-02</internalNodes>
      <leafValues>
        5.4711860418319702e-01 -2.7483209967613220e-01</leafValues></_>
    <_>
      <internalNodes>
        0 -1 41085 -1.7224738374352455e-02</internalNodes>
      <leafValues>
        5.0036180019378662e-01 -1.7902846634387970e-01</leafValues></_>
    <_>
      <internalNodes>
        0 -1 727 -1.0532876849174500e-01</internalNodes>
      <leafValues>
        6.0913062095642090e-01 -1.5065544843673706e-01</leafValues></_>
    <_>
      <internalNodes>
        0 -1 11483 -9.7722172737121582e-02</internalNodes>
      <leafValues>
        -7.6324766874313354e-01 1.2594677507877350e-01</leafValues></_>
    <_>
      <internalNodes>
        0 -1 3266 -8.0821458250284195e-03</internalNodes>
      <leafValues>
        3.3425262570381165e-01 -2.9196199774742126e-01</leafValues></_>
    <_>
      <internalNodes>
        0 -1 32028 1.9165447447448969e-03</internalNodes>
      <leafValues>
        1.2122272700071335e-01 -5.8173877000808716e-01</leafValues></_>
    <_>
      <internalNodes>
        0 -1 32323 -7.2146262973546982e-03</internalNodes>
      <leafValues>
        -7.2624129056930542e-01 1.0622689872980118e-01</leafValues></_>
    <_>
      <internalNodes>
        0 -1 158441 -2.1584103815257549e-03</internalNodes>
      <leafValues>
        3.8628381490707397e-01 -2.2689123451709747e-01</leafValues></_>
    <_>
      <internalNodes>
        0 -1 56938 -1.2190582230687141e-02</internalNodes>
      <leafValues>
        3.1761938333511353e-01 -2.7350798249244690e-01</leafValues></_>
    <_>
      <internalNodes>
        0 -1 112804 2.3412267182720825e-05</internalNodes>
      <leafValues>
        -2.6048848032951355e-01 3.2439899444580078e-01</leafValues></_>
    <_>
      <internalNodes>
        0 -1 127461 -3.1441694591194391e-04</internalNodes>
      <leafValues>
        -4.3537300825119019e-01 1.7750926315784454e-01</leafValues></_>
    <_>
      <internalNodes>
        0 -1 121742 1.0702115297317505e-01</internalNodes>
      <leafValues>
        -1.0941168665885925e-01 8.3961707353591919e-01</leafValues></_>
    <_>
      <internalNodes>
        0 -1 68045 -6.6944181919097900e-02</internalNodes>
      <leafValues>
        -8.2909631729125977e-01 1.1464414745569229e-01</leafValues></_>
    <_>
      <internalNodes>
        0 -1 31233 -8.6833868408575654e-05</internalNodes>
      <leafValues>
        2.4967303872108459e-01 -3.2296964526176453e-01</leafValues></_></weakClassifiers></stage6>
</opencv_storage>
