<?xml version="1.0"?>
<opencv_storage>
<stage2>
  <maxWeakCount>6</maxWeakCount>
  <stageThreshold>-1.3521840572357178e+00</stageThreshold>
  <weakClassifiers>
    <_>
      <internalNodes>
        0 -1 51596 2.6675974950194359e-02</internalNodes>
      <leafValues>
        -7.3102784156799316e-01 3.3779263496398926e-01</leafValues></_>
    <_>
      <internalNodes>
        0 -1 97440 -6.6624749451875687e-03</internalNodes>
      <leafValues>
        2.6360517740249634e-01 -8.0771917104721069e-01</leafValues></_>
    <_>
      <internalNodes>
        0 -1 20463 8.0962397158145905e-02</internalNodes>
      <leafValues>
        -5.8163928985595703e-01 3.9702609181404114e-01</leafValues></_>
    <_>
      <internalNodes>
        0 -1 23453 3.7677781656384468e-03</internalNodes>
      <leafValues>
        -2.9895797371864319e-01 6.3572955131530762e-01</leafValues></_>
    <_>
      <internalNodes>
        0 -1 57371 1.9493983127176762e-03</internalNodes>
      <leafValues>
        -2.4679197371006012e-01 7.2964668273925781e-01</leafValues></_>
    <_>
      <internalNodes>
        0 -1 125828 -6.6054784692823887e-03</internalNodes>
      <leafValues>
        3.7926462292671204e-01 -4.9629971385002136e-01</leafValues></_></weakClassifiers></stage2>
</opencv_storage>
