<?xml version="1.0"?>
<opencv_storage>
<stage6>
  <maxWeakCount>12</maxWeakCount>
  <stageThreshold>-1.5247318744659424e+00</stageThreshold>
  <weakClassifiers>
    <_>
      <internalNodes>
        0 -1 65393 -3.0084764957427979e-01</internalNodes>
      <leafValues>
        -3.3492822200059891e-02 -7.0065075159072876e-01</leafValues></_>
    <_>
      <internalNodes>
        0 -1 4332 9.2043101787567139e-02</internalNodes>
      <leafValues>
        -5.3042578697204590e-01 1.9227571785449982e-01</leafValues></_>
    <_>
      <internalNodes>
        0 -1 106308 3.5675838589668274e-03</internalNodes>
      <leafValues>
        -3.9311194419860840e-01 3.5507288575172424e-01</leafValues></_>
    <_>
      <internalNodes>
        0 -1 76747 4.2316541075706482e-02</internalNodes>
      <leafValues>
        -3.8741773366928101e-01 3.5840344429016113e-01</leafValues></_>
    <_>
      <internalNodes>
        0 -1 133757 6.1586506490129977e-05</internalNodes>
      <leafValues>
        -2.4930435419082642e-01 4.2173233628273010e-01</leafValues></_>
    <_>
      <internalNodes>
        0 -1 158151 -1.7723308410495520e-03</internalNodes>
      <leafValues>
        4.3233859539031982e-01 -2.2520586848258972e-01</leafValues></_>
    <_>
      <internalNodes>
        0 -1 148177 2.7703859814209864e-05</internalNodes>
      <leafValues>
        -3.1521552801132202e-01 3.0865377187728882e-01</leafValues></_>
    <_>
      <internalNodes>
        0 -1 34639 -5.6062336079776287e-03</internalNodes>
      <leafValues>
        7.0197379589080811e-01 -1.5347051620483398e-01</leafValues></_>
    <_>
      <internalNodes>
        0 -1 57371 1.7492431215941906e-03</internalNodes>
      <leafValues>
        -2.9991552233695984e-01 4.7480890154838562e-01</leafValues></_>
    <_>
      <internalNodes>
        0 -1 133429 -2.9282463947311044e-04</internalNodes>
      <leafValues>
        2.4493664503097534e-01 -4.0537360310554504e-01</leafValues></_>
    <_>
      <internalNodes>
        0 -1 97692 -1.9626668654382229e-03</internalNodes>
      <leafValues>
        2.3511950671672821e-01 -4.7125768661499023e-01</leafValues></_>
    <_>
      <internalNodes>
        0 -1 529 1.4170646667480469e-01</internalNodes>
      <leafValues>
        1.3313788175582886e-01 -7.9362922906875610e-01</leafValues></_></weakClassifiers></stage6>
</opencv_storage>
