<?xml version="1.0"?>
<opencv_storage>
<stage3>
  <maxWeakCount>10</maxWeakCount>
  <stageThreshold>-1.4533473253250122e+00</stageThreshold>
  <weakClassifiers>
    <_>
      <internalNodes>
        0 -1 49812 3.4651041030883789e-02</internalNodes>
      <leafValues>
        -7.3415130376815796e-01 1.6022099554538727e-01</leafValues></_>
    <_>
      <internalNodes>
        0 -1 58767 8.7474584579467773e-02</internalNodes>
      <leafValues>
        -5.5657154321670532e-01 4.1957280039787292e-01</leafValues></_>
    <_>
      <internalNodes>
        0 -1 46775 4.1630812920629978e-03</internalNodes>
      <leafValues>
        -2.6053553819656372e-01 6.7402780055999756e-01</leafValues></_>
    <_>
      <internalNodes>
        0 -1 18318 1.2389652431011200e-01</internalNodes>
      <leafValues>
        -6.4982086420059204e-01 3.0297774076461792e-01</leafValues></_>
    <_>
      <internalNodes>
        0 -1 47586 3.2553174532949924e-03</internalNodes>
      <leafValues>
        -2.4241431057453156e-01 6.4057344198226929e-01</leafValues></_>
    <_>
      <internalNodes>
        0 -1 113271 -4.6381048858165741e-02</internalNodes>
      <leafValues>
        3.7048268318176270e-01 -4.3041777610778809e-01</leafValues></_>
    <_>
      <internalNodes>
        0 -1 121320 7.8607618343085051e-04</internalNodes>
      <leafValues>
        -3.2116359472274780e-01 5.1842397451400757e-01</leafValues></_>
    <_>
      <internalNodes>
        0 -1 20107 -2.1038318052887917e-02</internalNodes>
      <leafValues>
        6.6566812992095947e-01 -2.5072613358497620e-01</leafValues></_>
    <_>
      <internalNodes>
        0 -1 98978 5.2091674879193306e-03</internalNodes>
      <leafValues>
        -2.5763466954231262e-01 5.4834789037704468e-01</leafValues></_>
    <_>
      <internalNodes>
        0 -1 47396 5.0236643292009830e-03</internalNodes>
      <leafValues>
        -2.5693923234939575e-01 5.2751296758651733e-01</leafValues></_></weakClassifiers></stage3>
</opencv_storage>
