<?xml version="1.0"?>
<opencv_storage>
<stage1>
  <maxWeakCount>6</maxWeakCount>
  <stageThreshold>-2.0665211677551270e+00</stageThreshold>
  <weakClassifiers>
    <_>
      <internalNodes>
        0 -1 69744 4.2193248867988586e-02</internalNodes>
      <leafValues>
        -8.5652172565460205e-01 3.0476191639900208e-01</leafValues></_>
    <_>
      <internalNodes>
        0 -1 17496 1.4965748786926270e-01</internalNodes>
      <leafValues>
        -7.7679872512817383e-01 3.9174109697341919e-01</leafValues></_>
    <_>
      <internalNodes>
        0 -1 23123 4.0892157703638077e-03</internalNodes>
      <leafValues>
        -4.5587465167045593e-01 7.0700621604919434e-01</leafValues></_>
    <_>
      <internalNodes>
        0 -1 23948 -3.8688100874423981e-02</internalNodes>
      <leafValues>
        4.5851603150367737e-01 -5.3301316499710083e-01</leafValues></_>
    <_>
      <internalNodes>
        0 -1 81098 2.2577973082661629e-02</internalNodes>
      <leafValues>
        -3.7440893054008484e-01 6.6407632827758789e-01</leafValues></_>
    <_>
      <internalNodes>
        0 -1 46735 -2.0289430394768715e-03</internalNodes>
      <leafValues>
        7.7161842584609985e-01 -2.3118758201599121e-01</leafValues></_></weakClassifiers></stage1>
</opencv_storage>
