<?xml version="1.0"?>
<opencv_storage>
<stage7>
  <maxWeakCount>7</maxWeakCount>
  <stageThreshold>-2.0399954319000244e+00</stageThreshold>
  <weakClassifiers>
    <_>
      <internalNodes>
        0 -1 1069 2.0252746343612671e-01</internalNodes>
      <leafValues>
        -9.0476191043853760e-01 1.</leafValues></_>
    <_>
      <internalNodes>
        0 -1 104496 1.0179670527577400e-02</internalNodes>
      <leafValues>
        -7.7228039503097534e-01 -1.4624889194965363e-01</leafValues></_>
    <_>
      <internalNodes>
        0 -1 10310 1.1136412620544434e-02</internalNodes>
      <leafValues>
        -5.7689106464385986e-01 2.0240187644958496e-01</leafValues></_>
    <_>
      <internalNodes>
        0 -1 147934 -1.7834818572737277e-04</internalNodes>
      <leafValues>
        -6.9965553283691406e-01 1.8352895975112915e-01</leafValues></_>
    <_>
      <internalNodes>
        0 -1 98403 2.7248618425801396e-04</internalNodes>
      <leafValues>
        -6.3448375463485718e-01 2.3865808546543121e-01</leafValues></_>
    <_>
      <internalNodes>
        0 -1 107235 -2.9694824479520321e-03</internalNodes>
      <leafValues>
        4.7634488344192505e-01 -3.2050341367721558e-01</leafValues></_>
    <_>
      <internalNodes>
        0 -1 89861 -1.5760656679049134e-03</internalNodes>
      <leafValues>
        -6.5710705518722534e-01 2.1614593267440796e-01</leafValues></_></weakClassifiers></stage7>
</opencv_storage>
