<?xml version="1.0"?>
<opencv_storage>
<cascade>
  <stageType>BOOST</stageType>
  <featureType>HAAR</featureType>
  <height>24</height>
  <width>24</width>
  <stageParams>
    <boostType>GAB</boostType>
    <minHitRate>9.9500000476837158e-001</minHitRate>
    <maxFalseAlarm>5.0000000000000000e-001</maxFalseAlarm>
    <weightTrimRate>9.4999999999999996e-001</weightTrimRate>
    <maxDepth>1</maxDepth>
    <maxWeakCount>100</maxWeakCount></stageParams>
  <featureParams>
    <maxCatCount>0</maxCatCount>
    <featSize>1</featSize>
    <mode>BASIC</mode></featureParams>
  <stageNum>2</stageNum>
  <stages>
    <!-- stage 0 -->
    <_>
      <maxWeakCount>2</maxWeakCount>
      <stageThreshold>-8.2032901048660278e-001</stageThreshold>
      <weakClassifiers>
        <_>
          <internalNodes>
            0 -1 1 -1.8206588923931122e-001</internalNodes>
          <leafValues>
            3.8461539149284363e-001 -9.9599200487136841e-001</leafValues></_>
        <_>
          <internalNodes>
            0 -1 0 -1.0921142250299454e-001</internalNodes>
          <leafValues>
            1.7566299438476562e-001 -1.</leafValues></_></weakClassifiers></_>
    <!-- stage 1 -->
    <_>
      <maxWeakCount>2</maxWeakCount>
      <stageThreshold>-3.1960463523864746e-001</stageThreshold>
      <weakClassifiers>
        <_>
          <internalNodes>
            0 -1 3 3.0312699079513550e-001</internalNodes>
          <leafValues>
            -9.9799799919128418e-001 6.6666668653488159e-001</leafValues></_>
        <_>
          <internalNodes>
            0 -1 2 5.0530350208282471e-001</internalNodes>
          <leafValues>
            -9.8627132177352905e-001 8.6948269605636597e-001</leafValues></_></weakClassifiers></_></stages>
  <features>
    <_>
      <rects>
        <_>
          1 19 21 3 -1.</_>
        <_>
          8 19 7 3 3.</_></rects>
      <tilted>0</tilted></_>
    <_>
      <rects>
        <_>
          2 19 21 4 -1.</_>
        <_>
          9 19 7 4 3.</_></rects>
      <tilted>0</tilted></_>
    <_>
      <rects>
        <_>
          4 0 20 19 -1.</_>
        <_>
          14 0 10 19 2.</_></rects>
      <tilted>0</tilted></_>
    <_>
      <rects>
        <_>
          12 2 12 19 -1.</_>
        <_>
          18 2 6 19 2.</_></rects>
      <tilted>0</tilted></_></features></cascade>
</opencv_storage>
