<?xml version="1.0"?>
<opencv_storage>
<cascade>
  <stageType>BOOST</stageType>
  <featureType>HAAR</featureType>
  <height>24</height>
  <width>24</width>
  <stageParams>
    <boostType>GAB</boostType>
    <minHitRate>9.9500000476837158e-001</minHitRate>
    <maxFalseAlarm>5.0000000000000000e-001</maxFalseAlarm>
    <weightTrimRate>9.4999999999999996e-001</weightTrimRate>
    <maxDepth>1</maxDepth>
    <maxWeakCount>100</maxWeakCount></stageParams>
  <featureParams>
    <maxCatCount>0</maxCatCount>
    <featSize>1</featSize>
    <mode>BASIC</mode></featureParams>
  <stageNum>3</stageNum>
  <stages>
    <!-- stage 0 -->
    <_>
      <maxWeakCount>2</maxWeakCount>
      <stageThreshold>-7.4493700265884399e-001</stageThreshold>
      <weakClassifiers>
        <_>
          <internalNodes>
            0 -1 4 6.1054602265357971e-002</internalNodes>
          <leafValues>
            -9.9195981025695801e-001 2.1739129722118378e-001</leafValues></_>
        <_>
          <internalNodes>
            0 -1 3 1.2526814639568329e-001</internalNodes>
          <leafValues>
            -9.6232831478118896e-001 8.1790465116500854e-001</leafValues></_></weakClassifiers></_>
    <!-- stage 1 -->
    <_>
      <maxWeakCount>3</maxWeakCount>
      <stageThreshold>-1.6652004718780518e+000</stageThreshold>
      <weakClassifiers>
        <_>
          <internalNodes>
            0 -1 0 -5.3972214460372925e-002</internalNodes>
          <leafValues>
            5.0000000000000000e-001 -9.7623759508132935e-001</leafValues></_>
        <_>
          <internalNodes>
            0 -1 1 8.3555266261100769e-002</internalNodes>
          <leafValues>
            -9.5207029581069946e-001 2.8300547599792480e-001</leafValues></_>
        <_>
          <internalNodes>
            0 -1 6 -2.9441980645060539e-002</internalNodes>
          <leafValues>
            3.5446634888648987e-001 -9.7196835279464722e-001</leafValues></_></weakClassifiers></_>
    <!-- stage 2 -->
    <_>
      <maxWeakCount>2</maxWeakCount>
      <stageThreshold>-1.0875188112258911e+000</stageThreshold>
      <weakClassifiers>
        <_>
          <internalNodes>
            0 -1 5 6.1627235263586044e-003</internalNodes>
          <leafValues>
            -9.6850395202636719e-001 1.</leafValues></_>
        <_>
          <internalNodes>
            0 -1 2 4.7737860679626465e-001</internalNodes>
          <leafValues>
            -1. -1.1901488900184631e-001</leafValues></_></weakClassifiers></_></stages>
  <features>
    <_>
      <rects>
        <_>
          0 2 6 5 -1.</_>
        <_>
          3 2 3 5 2.</_></rects>
      <tilted>0</tilted></_>
    <_>
      <rects>
        <_>
          2 0 12 12 -1.</_>
        <_>
          8 0 6 12 2.</_></rects>
      <tilted>0</tilted></_>
    <_>
      <rects>
        <_>
          2 5 22 17 -1.</_>
        <_>
          13 5 11 17 2.</_></rects>
      <tilted>0</tilted></_>
    <_>
      <rects>
        <_>
          8 0 16 4 -1.</_>
        <_>
          16 0 8 4 2.</_></rects>
      <tilted>0</tilted></_>
    <_>
      <rects>
        <_>
          8 19 16 2 -1.</_>
        <_>
          16 19 8 2 2.</_></rects>
      <tilted>0</tilted></_>
    <_>
      <rects>
        <_>
          13 3 6 2 -1.</_>
        <_>
          13 3 3 1 2.</_>
        <_>
          16 4 3 1 2.</_></rects>
      <tilted>0</tilted></_>
    <_>
      <rects>
        <_>
          16 0 5 10 -1.</_>
        <_>
          16 5 5 5 2.</_></rects>
      <tilted>0</tilted></_></features></cascade>
</opencv_storage>
