<?xml version="1.0"?>
<opencv_storage>
<stage4>
  <maxWeakCount>6</maxWeakCount>
  <stageThreshold>-1.7515531778335571e+00</stageThreshold>
  <weakClassifiers>
    <_>
      <internalNodes>
        0 -1 71087 1.8159973621368408e-01</internalNodes>
      <leafValues>
        -9.0813398361206055e-01 7.5999999046325684e-01</leafValues></_>
    <_>
      <internalNodes>
        0 -1 111252 -7.7656924724578857e-02</internalNodes>
      <leafValues>
        5.1573765277862549e-01 -7.0869714021682739e-01</leafValues></_>
    <_>
      <internalNodes>
        0 -1 135023 -2.8587095439434052e-03</internalNodes>
      <leafValues>
        -7.2296881675720215e-01 2.8089693188667297e-01</leafValues></_>
    <_>
      <internalNodes>
        0 -1 32305 8.9484289288520813e-02</internalNodes>
      <leafValues>
        -4.7163051366806030e-01 5.5196630954742432e-01</leafValues></_>
    <_>
      <internalNodes>
        0 -1 161210 2.0293070701882243e-04</internalNodes>
      <leafValues>
        -8.0789327621459961e-01 3.5989010334014893e-01</leafValues></_>
    <_>
      <internalNodes>
        0 -1 134092 7.5668409466743469e-02</internalNodes>
      <leafValues>
        -2.9694592952728271e-01 8.6390483379364014e-01</leafValues></_></weakClassifiers></stage4>
</opencv_storage>
