<?xml version="1.0"?>
<opencv_storage>
<stage5>
  <maxWeakCount>5</maxWeakCount>
  <stageThreshold>-1.7412376403808594e+00</stageThreshold>
  <weakClassifiers>
    <_>
      <internalNodes>
        0 -1 49993 -2.0312266051769257e-01</internalNodes>
      <leafValues>
        1. -8.9573460817337036e-01</leafValues></_>
    <_>
      <internalNodes>
        0 -1 27418 1.5046855807304382e-01</internalNodes>
      <leafValues>
        -8.1523019075393677e-01 1.6850507259368896e-01</leafValues></_>
    <_>
      <internalNodes>
        0 -1 75809 -6.5313661471009254e-03</internalNodes>
      <leafValues>
        3.7709748744964600e-01 -6.3789719343185425e-01</leafValues></_>
    <_>
      <internalNodes>
        0 -1 31095 1.0483456775546074e-02</internalNodes>
      <leafValues>
        2.8048798441886902e-01 -9.4428586959838867e-01</leafValues></_>
    <_>
      <internalNodes>
        0 -1 159624 -3.7052819970995188e-04</internalNodes>
      <leafValues>
        3.2713633775711060e-01 -6.4087748527526855e-01</leafValues></_></weakClassifiers></stage5>
</opencv_storage>
