<?xml version="1.0"?>
<opencv_storage>
<stage2>
  <maxWeakCount>8</maxWeakCount>
  <stageThreshold>-8.3502823114395142e-01</stageThreshold>
  <weakClassifiers>
    <_>
      <internalNodes>
        0 -1 81808 -2.0423176884651184e-01</internalNodes>
      <leafValues>
        7.8625953197479248e-01 -5.1809084415435791e-01</leafValues></_>
    <_>
      <internalNodes>
        0 -1 731413 9.6953302621841431e-02</internalNodes>
      <leafValues>
        -2.7099394798278809e-01 7.4849534034729004e-01</leafValues></_>
    <_>
      <internalNodes>
        0 -1 1240286 1.9782534218393266e-04</internalNodes>
      <leafValues>
        2.6060572266578674e-01 -7.2766286134719849e-01</leafValues></_>
    <_>
      <internalNodes>
        0 -1 1146 -8.2277499139308929e-02</internalNodes>
      <leafValues>
        6.3771581649780273e-01 -2.0481158792972565e-01</leafValues></_>
    <_>
      <internalNodes>
        0 -1 181087 -1.9463494420051575e-01</internalNodes>
      <leafValues>
        8.0603647232055664e-01 -1.7389175295829773e-01</leafValues></_>
    <_>
      <internalNodes>
        0 -1 1088622 2.0214770920574665e-03</internalNodes>
      <leafValues>
        2.5549611449241638e-01 -7.0201325416564941e-01</leafValues></_>
    <_>
      <internalNodes>
        0 -1 1129642 -4.8918850719928741e-02</internalNodes>
      <leafValues>
        6.9098389148712158e-01 -2.1504124999046326e-01</leafValues></_>
    <_>
      <internalNodes>
        0 -1 465869 2.1934151300229132e-04</internalNodes>
      <leafValues>
        1.4668130874633789e-01 -8.6496829986572266e-01</leafValues></_></weakClassifiers></stage2>
</opencv_storage>
