<?xml version="1.0"?>
<opencv_storage>
<stage3>
  <maxWeakCount>10</maxWeakCount>
  <stageThreshold>-1.2473479509353638e+00</stageThreshold>
  <weakClassifiers>
    <_>
      <internalNodes>
        0 -1 653490 8.7478786706924438e-02</internalNodes>
      <leafValues>
        -5.2830189466476440e-01 6.4556962251663208e-01</leafValues></_>
    <_>
      <internalNodes>
        0 -1 130920 4.8077136278152466e-02</internalNodes>
      <leafValues>
        -2.3329827189445496e-01 6.8945401906967163e-01</leafValues></_>
    <_>
      <internalNodes>
        0 -1 64144 1.2019084533676505e-03</internalNodes>
      <leafValues>
        2.2136029601097107e-01 -5.7013124227523804e-01</leafValues></_>
    <_>
      <internalNodes>
        0 -1 3008 -1.3147820718586445e-03</internalNodes>
      <leafValues>
        -7.4887621402740479e-01 1.7515987157821655e-01</leafValues></_>
    <_>
      <internalNodes>
        0 -1 807702 6.1560012400150299e-02</internalNodes>
      <leafValues>
        -2.3655784130096436e-01 5.6274151802062988e-01</leafValues></_>
    <_>
      <internalNodes>
        0 -1 302522 5.3655274212360382e-02</internalNodes>
      <leafValues>
        -1.1986166238784790e-01 9.0921455621719360e-01</leafValues></_>
    <_>
      <internalNodes>
        0 -1 1240312 1.0136719356523827e-04</internalNodes>
      <leafValues>
        2.5623068213462830e-01 -7.0229989290237427e-01</leafValues></_>
    <_>
      <internalNodes>
        0 -1 57603 -8.7760796304792166e-04</internalNodes>
      <leafValues>
        -7.5760364532470703e-01 1.0159279406070709e-01</leafValues></_>
    <_>
      <internalNodes>
        0 -1 616883 5.7616969570517540e-04</internalNodes>
      <leafValues>
        1.8454509973526001e-01 -6.5394181013107300e-01</leafValues></_>
    <_>
      <internalNodes>
        0 -1 796461 -4.8735164105892181e-02</internalNodes>
      <leafValues>
        5.6343066692352295e-01 -2.2844634950160980e-01</leafValues></_></weakClassifiers></stage3>
</opencv_storage>
