<?xml version="1.0"?>
<opencv_storage>
<stage14>
  <maxWeakCount>7</maxWeakCount>
  <stageThreshold>-1.0160320997238159e+00</stageThreshold>
  <weakClassifiers>
    <_>
      <internalNodes>
        0 -1 4772 -2.1348804235458374e-01</internalNodes>
      <leafValues>
        9.3939393758773804e-01 -4.9812170863151550e-01</leafValues></_>
    <_>
      <internalNodes>
        0 -1 885734 3.4616358578205109e-02</internalNodes>
      <leafValues>
        1.1568726599216461e-01 -9.6418064832687378e-01</leafValues></_>
    <_>
      <internalNodes>
        0 -1 1170969 4.8572728410363197e-03</internalNodes>
      <leafValues>
        1.3590487837791443e-01 -7.4445581436157227e-01</leafValues></_>
    <_>
      <internalNodes>
        0 -1 781901 2.8587654232978821e-03</internalNodes>
      <leafValues>
        1.1968164891004562e-01 -8.3958649635314941e-01</leafValues></_>
    <_>
      <internalNodes>
        0 -1 465739 1.9723414443433285e-03</internalNodes>
      <leafValues>
        1.0983049124479294e-01 -7.5297665596008301e-01</leafValues></_>
    <_>
      <internalNodes>
        0 -1 121594 8.1983711570501328e-03</internalNodes>
      <leafValues>
        2.2923943400382996e-01 -5.0787883996963501e-01</leafValues></_>
    <_>
      <internalNodes>
        0 -1 289969 8.8312698062509298e-04</internalNodes>
      <leafValues>
        -2.6898595690727234e-01 4.5628464221954346e-01</leafValues></_></weakClassifiers></stage14>
</opencv_storage>
