<?xml version="1.0"?>
<opencv_storage>
<stage4>
  <maxWeakCount>10</maxWeakCount>
  <stageThreshold>-2.1633861064910889e+00</stageThreshold>
  <weakClassifiers>
    <_>
      <internalNodes>
        0 -1 153645 3.0417937785387039e-02</internalNodes>
      <leafValues>
        -7.6313447952270508e-01 6.4912283420562744e-01</leafValues></_>
    <_>
      <internalNodes>
        0 -1 72827 -6.9954797625541687e-02</internalNodes>
      <leafValues>
        2.6928472518920898e-01 -5.1977574825286865e-01</leafValues></_>
    <_>
      <internalNodes>
        0 -1 48240 -5.1073096692562103e-03</internalNodes>
      <leafValues>
        5.6323546171188354e-01 -2.9775777459144592e-01</leafValues></_>
    <_>
      <internalNodes>
        0 -1 69400 -5.8747055009007454e-03</internalNodes>
      <leafValues>
        3.7516531348228455e-01 -4.1507118940353394e-01</leafValues></_>
    <_>
      <internalNodes>
        0 -1 22717 -3.1718108803033829e-03</internalNodes>
      <leafValues>
        6.1488288640975952e-01 -2.6943811774253845e-01</leafValues></_>
    <_>
      <internalNodes>
        0 -1 154007 -2.1536378189921379e-02</internalNodes>
      <leafValues>
        7.0986777544021606e-01 -1.8160614371299744e-01</leafValues></_>
    <_>
      <internalNodes>
        0 -1 125448 1.2654346646741033e-03</internalNodes>
      <leafValues>
        3.0069297552108765e-01 -6.5050321817398071e-01</leafValues></_>
    <_>
      <internalNodes>
        0 -1 155518 3.1946001108735800e-03</internalNodes>
      <leafValues>
        -3.2644408941268921e-01 4.8510181903839111e-01</leafValues></_>
    <_>
      <internalNodes>
        0 -1 47128 -3.8015297614037991e-03</internalNodes>
      <leafValues>
        5.7782870531082153e-01 -3.1265884637832642e-01</leafValues></_>
    <_>
      <internalNodes>
        0 -1 114142 2.9534923378378153e-03</internalNodes>
      <leafValues>
        -2.6868018507957458e-01 6.0635274648666382e-01</leafValues></_></weakClassifiers></stage4>
</opencv_storage>
