<?xml version="1.0"?>
<opencv_storage>
<stage5>
  <maxWeakCount>10</maxWeakCount>
  <stageThreshold>-1.7753366231918335e+00</stageThreshold>
  <weakClassifiers>
    <_>
      <internalNodes>
        0 -1 6176 -1.9210603833198547e-01</internalNodes>
      <leafValues>
        8.9473682641983032e-01 -7.4781084060668945e-01</leafValues></_>
    <_>
      <internalNodes>
        0 -1 55371 7.7560231089591980e-02</internalNodes>
      <leafValues>
        -5.9011209011077881e-01 1.1156982928514481e-01</leafValues></_>
    <_>
      <internalNodes>
        0 -1 121128 2.3632005322724581e-03</internalNodes>
      <leafValues>
        -2.4366277456283569e-01 5.4114580154418945e-01</leafValues></_>
    <_>
      <internalNodes>
        0 -1 43400 -2.5811749696731567e-01</internalNodes>
      <leafValues>
        5.6626641750335693e-01 -2.2009921073913574e-01</leafValues></_>
    <_>
      <internalNodes>
        0 -1 9604 8.3655808120965958e-03</internalNodes>
      <leafValues>
        -1.3151769340038300e-01 9.0717691183090210e-01</leafValues></_>
    <_>
      <internalNodes>
        0 -1 82634 2.8385662008076906e-03</internalNodes>
      <leafValues>
        2.8816035389900208e-01 -5.2962386608123779e-01</leafValues></_>
    <_>
      <internalNodes>
        0 -1 23266 -1.7087180167436600e-03</internalNodes>
      <leafValues>
        4.5036634802818298e-01 -3.2159870862960815e-01</leafValues></_>
    <_>
      <internalNodes>
        0 -1 44042 1.8495662137866020e-02</internalNodes>
      <leafValues>
        1.6552567481994629e-01 -9.3542557954788208e-01</leafValues></_>
    <_>
      <internalNodes>
        0 -1 151529 -3.4950999543070793e-03</internalNodes>
      <leafValues>
        6.2241798639297485e-01 -2.3860865831375122e-01</leafValues></_>
    <_>
      <internalNodes>
        0 -1 67549 -3.4024170599877834e-03</internalNodes>
      <leafValues>
        2.6438730955123901e-01 -4.4678583741188049e-01</leafValues></_></weakClassifiers></stage5>
</opencv_storage>
