<?xml version="1.0"?>
<opencv_storage>
<stage8>
  <maxWeakCount>8</maxWeakCount>
  <stageThreshold>-1.5518347024917603e+00</stageThreshold>
  <weakClassifiers>
    <_>
      <internalNodes>
        0 -1 132421 1.6379108652472496e-02</internalNodes>
      <leafValues>
        -7.9093432426452637e-01 3.5353535413742065e-01</leafValues></_>
    <_>
      <internalNodes>
        0 -1 158858 -1.4750013127923012e-02</internalNodes>
      <leafValues>
        6.6885137557983398e-01 -4.4130802154541016e-01</leafValues></_>
    <_>
      <internalNodes>
        0 -1 114968 -1.3535907492041588e-02</internalNodes>
      <leafValues>
        4.0371593832969666e-01 -4.3320512771606445e-01</leafValues></_>
    <_>
      <internalNodes>
        0 -1 25786 4.6499826567014679e-05</internalNodes>
      <leafValues>
        2.8794121742248535e-01 -5.7269334793090820e-01</leafValues></_>
    <_>
      <internalNodes>
        0 -1 140362 7.0214294828474522e-04</internalNodes>
      <leafValues>
        -1.8346314132213593e-01 8.4491807222366333e-01</leafValues></_>
    <_>
      <internalNodes>
        0 -1 87738 7.7626295387744904e-04</internalNodes>
      <leafValues>
        3.1694668531417847e-01 -5.6702864170074463e-01</leafValues></_>
    <_>
      <internalNodes>
        0 -1 110725 6.2535400502383709e-03</internalNodes>
      <leafValues>
        1.8250049650669098e-01 -7.4197506904602051e-01</leafValues></_>
    <_>
      <internalNodes>
        0 -1 54498 -5.6965427938848734e-04</internalNodes>
      <leafValues>
        3.9366278052330017e-01 -4.2041942477226257e-01</leafValues></_></weakClassifiers></stage8>
</opencv_storage>
