<?xml version="1.0"?>
<opencv_storage>
<stage12>
  <maxWeakCount>9</maxWeakCount>
  <stageThreshold>-1.5997239351272583e+00</stageThreshold>
  <weakClassifiers>
    <_>
      <internalNodes>
        0 -1 127902 1.1451937258243561e-02</internalNodes>
      <leafValues>
        -7.7055102586746216e-01 4.5205479860305786e-01</leafValues></_>
    <_>
      <internalNodes>
        0 -1 103091 -3.2203339040279388e-02</internalNodes>
      <leafValues>
        2.7082875370979309e-01 -6.3898026943206787e-01</leafValues></_>
    <_>
      <internalNodes>
        0 -1 57697 -4.1254693642258644e-03</internalNodes>
      <leafValues>
        8.1436145305633545e-01 -2.2792191803455353e-01</leafValues></_>
    <_>
      <internalNodes>
        0 -1 13721 -1.2935148552060127e-02</internalNodes>
      <leafValues>
        7.8608918190002441e-01 -1.4491990208625793e-01</leafValues></_>
    <_>
      <internalNodes>
        0 -1 66501 1.0922754183411598e-02</internalNodes>
      <leafValues>
        -2.7300545573234558e-01 4.5112261176109314e-01</leafValues></_>
    <_>
      <internalNodes>
        0 -1 1460 -8.1855118274688721e-02</internalNodes>
      <leafValues>
        5.4598921537399292e-01 -2.6623478531837463e-01</leafValues></_>
    <_>
      <internalNodes>
        0 -1 13651 1.4590142294764519e-02</internalNodes>
      <leafValues>
        -1.7828920483589172e-01 7.4573057889938354e-01</leafValues></_>
    <_>
      <internalNodes>
        0 -1 82675 2.2914148867130280e-02</internalNodes>
      <leafValues>
        -1.2035910785198212e-01 8.9417046308517456e-01</leafValues></_>
    <_>
      <internalNodes>
        0 -1 101958 4.2057529091835022e-02</internalNodes>
      <leafValues>
        2.0831374824047089e-01 -6.5895509719848633e-01</leafValues></_></weakClassifiers></stage12>
</opencv_storage>
