<?xml version="1.0"?>
<opencv_storage>
<stage2>
  <maxWeakCount>5</maxWeakCount>
  <stageThreshold>-1.7360628843307495e+00</stageThreshold>
  <weakClassifiers>
    <_>
      <internalNodes>
        0 -1 38633 3.3793354034423828e-01</internalNodes>
      <leafValues>
        -9.0294957160949707e-01 1.</leafValues></_>
    <_>
      <internalNodes>
        0 -1 28434 2.0699802041053772e-01</internalNodes>
      <leafValues>
        -6.7961812019348145e-01 8.3422350883483887e-01</leafValues></_>
    <_>
      <internalNodes>
        0 -1 67154 9.8362080752849579e-03</internalNodes>
      <leafValues>
        2.7683910727500916e-01 -8.6049413681030273e-01</leafValues></_>
    <_>
      <internalNodes>
        0 -1 117186 -9.9199276883155107e-04</internalNodes>
      <leafValues>
        3.7450361251831055e-01 -6.5667408704757690e-01</leafValues></_>
    <_>
      <internalNodes>
        0 -1 118 1.0299984365701675e-02</internalNodes>
      <leafValues>
        -7.2464776039123535e-01 3.3249533176422119e-01</leafValues></_></weakClassifiers></stage2>
</opencv_storage>
