<?xml version="1.0"?>
<opencv_storage>
<cascade>
  <stageType>BOOST</stageType>
  <featureType>HAAR</featureType>
  <height>50</height>
  <width>50</width>
  <stageParams>
    <boostType>GAB</boostType>
    <minHitRate>9.9500000476837158e-01</minHitRate>
    <maxFalseAlarm>5.0000000000000000e-01</maxFalseAlarm>
    <weightTrimRate>9.4999999999999996e-01</weightTrimRate>
    <maxDepth>1</maxDepth>
    <maxWeakCount>100</maxWeakCount></stageParams>
  <featureParams>
    <maxCatCount>0</maxCatCount>
    <featSize>1</featSize>
    <mode>BASIC</mode></featureParams>
  <stageNum>8</stageNum>
  <stages>
    <!-- stage 0 -->
    <_>
      <maxWeakCount>2</maxWeakCount>
      <stageThreshold>-6.4124399423599243e-01</stageThreshold>
      <weakClassifiers>
        <_>
          <internalNodes>
            0 -1 2 2.6023423671722412e-01</internalNodes>
          <leafValues>
            -9.8995983600616455e-01 7.5675678253173828e-01</leafValues></_>
        <_>
          <internalNodes>
            0 -1 22 -6.6931456327438354e-02</internalNodes>
          <leafValues>
            3.4871584177017212e-01 -9.8982763290405273e-01</leafValues></_></weakClassifiers></_>
    <!-- stage 1 -->
    <_>
      <maxWeakCount>3</maxWeakCount>
      <stageThreshold>-1.3081765174865723e+00</stageThreshold>
      <weakClassifiers>
        <_>
          <internalNodes>
            0 -1 8 8.0001622438430786e-02</internalNodes>
          <leafValues>
            -9.2607003450393677e-01 5.2380955219268799e-01</leafValues></_>
        <_>
          <internalNodes>
            0 -1 23 3.9259992539882660e-02</internalNodes>
          <leafValues>
            -9.0311592817306519e-01 4.2021885514259338e-01</leafValues></_>
        <_>
          <internalNodes>
            0 -1 0 2.4325135350227356e-01</internalNodes>
          <leafValues>
            -8.0232536792755127e-01 5.4445391893386841e-01</leafValues></_></weakClassifiers></_>
    <!-- stage 2 -->
    <_>
      <maxWeakCount>3</maxWeakCount>
      <stageThreshold>-1.6419492959976196e+00</stageThreshold>
      <weakClassifiers>
        <_>
          <internalNodes>
            0 -1 7 2.8698347508907318e-02</internalNodes>
          <leafValues>
            -8.9733839035034180e-01 7.7777779102325439e-01</leafValues></_>
        <_>
          <internalNodes>
            0 -1 16 1.7409525811672211e-02</internalNodes>
          <leafValues>
            -9.3150675296783447e-01 8.6304649710655212e-02</leafValues></_>
        <_>
          <internalNodes>
            0 -1 24 -4.5423690229654312e-02</internalNodes>
          <leafValues>
            3.4922701120376587e-01 -8.3091557025909424e-01</leafValues></_></weakClassifiers></_>
    <!-- stage 3 -->
    <_>
      <maxWeakCount>4</maxWeakCount>
      <stageThreshold>-1.8602582216262817e+00</stageThreshold>
      <weakClassifiers>
        <_>
          <internalNodes>
            0 -1 15 5.3553454577922821e-02</internalNodes>
          <leafValues>
            -9.0085798501968384e-01 7.1428573131561279e-01</leafValues></_>
        <_>
          <internalNodes>
            0 -1 10 5.4471928626298904e-02</internalNodes>
          <leafValues>
            -8.1275564432144165e-01 3.3818578720092773e-01</leafValues></_>
        <_>
          <internalNodes>
            0 -1 19 -1.6263471916317940e-02</internalNodes>
          <leafValues>
            3.9709705114364624e-01 -7.9444205760955811e-01</leafValues></_>
        <_>
          <internalNodes>
            0 -1 26 -7.9850759357213974e-04</internalNodes>
          <leafValues>
            6.6434258222579956e-01 -5.0314408540725708e-01</leafValues></_></weakClassifiers></_>
    <!-- stage 4 -->
    <_>
      <maxWeakCount>3</maxWeakCount>
      <stageThreshold>-1.2311841249465942e+00</stageThreshold>
      <weakClassifiers>
        <_>
          <internalNodes>
            0 -1 12 6.5723262727260590e-02</internalNodes>
          <leafValues>
            -8.9914369583129883e-01 7.8947371244430542e-01</leafValues></_>
        <_>
          <internalNodes>
            0 -1 9 2.9016919434070587e-02</internalNodes>
          <leafValues>
            -6.9361126422882080e-01 6.3830178976058960e-01</leafValues></_>
        <_>
          <internalNodes>
            0 -1 21 -5.5357150733470917e-02</internalNodes>
          <leafValues>
            3.6157083511352539e-01 -8.3593672513961792e-01</leafValues></_></weakClassifiers></_>
    <!-- stage 5 -->
    <_>
      <maxWeakCount>4</maxWeakCount>
      <stageThreshold>-1.7733792066574097e+00</stageThreshold>
      <weakClassifiers>
        <_>
          <internalNodes>
            0 -1 20 -2.3363745212554932e-01</internalNodes>
          <leafValues>
            1.2048192322254181e-02 -9.4326239824295044e-01</leafValues></_>
        <_>
          <internalNodes>
            0 -1 6 -6.4416259527206421e-02</internalNodes>
          <leafValues>
            5.5779856443405151e-01 -7.5028377771377563e-01</leafValues></_>
        <_>
          <internalNodes>
            0 -1 11 1.6594491899013519e-02</internalNodes>
          <leafValues>
            -5.5373346805572510e-01 7.3498374223709106e-01</leafValues></_>
        <_>
          <internalNodes>
            0 -1 25 -1.3417230919003487e-02</internalNodes>
          <leafValues>
            4.7390040755271912e-01 -7.3237878084182739e-01</leafValues></_></weakClassifiers></_>
    <!-- stage 6 -->
    <_>
      <maxWeakCount>5</maxWeakCount>
      <stageThreshold>-1.9009249210357666e+00</stageThreshold>
      <weakClassifiers>
        <_>
          <internalNodes>
            0 -1 1 2.9673683643341064e-01</internalNodes>
          <leafValues>
            -9.0639925003051758e-01 8.2608693838119507e-01</leafValues></_>
        <_>
          <internalNodes>
            0 -1 27 7.1687074378132820e-03</internalNodes>
          <leafValues>
            -7.3955827951431274e-01 5.9071671962738037e-01</leafValues></_>
        <_>
          <internalNodes>
            0 -1 17 -2.2178623080253601e-01</internalNodes>
          <leafValues>
            3.8741189241409302e-01 -7.0313990116119385e-01</leafValues></_>
        <_>
          <internalNodes>
            0 -1 4 1.9649382680654526e-02</internalNodes>
          <leafValues>
            3.7312328815460205e-01 -8.8874769210815430e-01</leafValues></_>
        <_>
          <internalNodes>
            0 -1 28 2.4639568291604519e-03</internalNodes>
          <leafValues>
            2.4636846780776978e-01 -9.8751229047775269e-01</leafValues></_></weakClassifiers></_>
    <!-- stage 7 -->
    <_>
      <maxWeakCount>5</maxWeakCount>
      <stageThreshold>-1.8262031078338623e+00</stageThreshold>
      <weakClassifiers>
        <_>
          <internalNodes>
            0 -1 13 1.4563921838998795e-02</internalNodes>
          <leafValues>
            -9.0285712480545044e-01 8.9999997615814209e-01</leafValues></_>
        <_>
          <internalNodes>
            0 -1 18 -1.1962944269180298e-01</internalNodes>
          <leafValues>
            6.2664127349853516e-01 -7.0401227474212646e-01</leafValues></_>
        <_>
          <internalNodes>
            0 -1 14 1.0991623857989907e-03</internalNodes>
          <leafValues>
            -8.1722885370254517e-01 3.3518654108047485e-01</leafValues></_>
        <_>
          <internalNodes>
            0 -1 5 2.4669431149959564e-03</internalNodes>
          <leafValues>
            2.6179188489913940e-01 -9.0089207887649536e-01</leafValues></_>
        <_>
          <internalNodes>
            0 -1 3 3.0890635680407286e-03</internalNodes>
          <leafValues>
            3.7065610289573669e-01 -8.1631207466125488e-01</leafValues></_></weakClassifiers></_></stages>
  <features>
    <_>
      <rects>
        <_>
          0 8 48 12 -1.</_>
        <_>
          16 8 16 12 3.</_></rects>
      <tilted>0</tilted></_>
    <_>
      <rects>
        <_>
          1 8 42 13 -1.</_>
        <_>
          15 8 14 13 3.</_></rects>
      <tilted>0</tilted></_>
    <_>
      <rects>
        <_>
          1 10 48 15 -1.</_>
        <_>
          17 10 16 15 3.</_></rects>
      <tilted>0</tilted></_>
    <_>
      <rects>
        <_>
          1 27 12 21 -1.</_>
        <_>
          7 27 6 21 2.</_></rects>
      <tilted>0</tilted></_>
    <_>
      <rects>
        <_>
          1 40 39 10 -1.</_>
        <_>
          14 40 13 10 3.</_></rects>
      <tilted>0</tilted></_>
    <_>
      <rects>
        <_>
          5 48 18 2 -1.</_>
        <_>
          14 48 9 2 2.</_></rects>
      <tilted>0</tilted></_>
    <_>
      <rects>
        <_>
          7 10 15 35 -1.</_>
        <_>
          12 10 5 35 3.</_></rects>
      <tilted>0</tilted></_>
    <_>
      <rects>
        <_>
          10 12 10 6 -1.</_>
        <_>
          15 12 5 6 2.</_></rects>
      <tilted>0</tilted></_>
    <_>
      <rects>
        <_>
          11 3 15 32 -1.</_>
        <_>
          16 3 5 32 3.</_></rects>
      <tilted>0</tilted></_>
    <_>
      <rects>
        <_>
          11 12 12 13 -1.</_>
        <_>
          15 12 4 13 3.</_></rects>
      <tilted>0</tilted></_>
    <_>
      <rects>
        <_>
          12 0 21 12 -1.</_>
        <_>
          19 0 7 12 3.</_></rects>
      <tilted>0</tilted></_>
    <_>
      <rects>
        <_>
          13 0 15 5 -1.</_>
        <_>
          18 0 5 5 3.</_></rects>
      <tilted>0</tilted></_>
    <_>
      <rects>
        <_>
          13 14 10 17 -1.</_>
        <_>
          18 14 5 17 2.</_></rects>
      <tilted>0</tilted></_>
    <_>
      <rects>
        <_>
          14 3 6 20 -1.</_>
        <_>
          14 3 3 10 2.</_>
        <_>
          17 13 3 10 2.</_></rects>
      <tilted>0</tilted></_>
    <_>
      <rects>
        <_>
          14 12 29 9 -1.</_>
        <_>
          14 15 29 3 3.</_></rects>
      <tilted>0</tilted></_>
    <_>
      <rects>
        <_>
          14 13 8 20 -1.</_>
        <_>
          18 13 4 20 2.</_></rects>
      <tilted>0</tilted></_>
    <_>
      <rects>
        <_>
          16 0 23 14 -1.</_>
        <_>
          16 7 23 7 2.</_></rects>
      <tilted>0</tilted></_>
    <_>
      <rects>
        <_>
          16 7 34 24 -1.</_>
        <_>
          33 7 17 24 2.</_></rects>
      <tilted>0</tilted></_>
    <_>
      <rects>
        <_>
          16 9 32 8 -1.</_>
        <_>
          32 9 16 8 2.</_></rects>
      <tilted>0</tilted></_>
    <_>
      <rects>
        <_>
          16 20 5 24 -1.</_>
        <_>
          16 32 5 12 2.</_></rects>
      <tilted>0</tilted></_>
    <_>
      <rects>
        <_>
          18 6 30 21 -1.</_>
        <_>
          33 6 15 21 2.</_></rects>
      <tilted>0</tilted></_>
    <_>
      <rects>
        <_>
          20 14 25 26 -1.</_>
        <_>
          20 27 25 13 2.</_></rects>
      <tilted>0</tilted></_>
    <_>
      <rects>
        <_>
          26 2 16 19 -1.</_>
        <_>
          34 2 8 19 2.</_></rects>
      <tilted>0</tilted></_>
    <_>
      <rects>
        <_>
          26 2 12 30 -1.</_>
        <_>
          26 12 12 10 3.</_></rects>
      <tilted>0</tilted></_>
    <_>
      <rects>
        <_>
          30 3 10 25 -1.</_>
        <_>
          35 3 5 25 2.</_></rects>
      <tilted>0</tilted></_>
    <_>
      <rects>
        <_>
          32 20 10 14 -1.</_>
        <_>
          37 20 5 14 2.</_></rects>
      <tilted>0</tilted></_>
    <_>
      <rects>
        <_>
          32 28 3 6 -1.</_>
        <_>
          33 28 1 6 3.</_></rects>
      <tilted>0</tilted></_>
    <_>
      <rects>
        <_>
          34 24 9 11 -1.</_>
        <_>
          37 24 3 11 3.</_></rects>
      <tilted>0</tilted></_>
    <_>
      <rects>
        <_>
          40 18 10 12 -1.</_>
        <_>
          40 18 5 6 2.</_>
        <_>
          45 24 5 6 2.</_></rects>
      <tilted>0</tilted></_></features></cascade>
</opencv_storage>
