<?xml version="1.0"?>
<opencv_storage>
<stage7>
  <maxWeakCount>8</maxWeakCount>
  <stageThreshold>-1.4540838003158569e+00</stageThreshold>
  <weakClassifiers>
    <_>
      <internalNodes>
        0 -1 155514 7.7056316658854485e-03</internalNodes>
      <leafValues>
        -8.4934085607528687e-01 3.7931033968925476e-01</leafValues></_>
    <_>
      <internalNodes>
        0 -1 115591 -1.2991030234843493e-03</internalNodes>
      <leafValues>
        5.4231154918670654e-01 -5.0993895530700684e-01</leafValues></_>
    <_>
      <internalNodes>
        0 -1 109553 1.5868617594242096e-01</internalNodes>
      <leafValues>
        1.9192983210086823e-01 -8.7523126602172852e-01</leafValues></_>
    <_>
      <internalNodes>
        0 -1 67179 -4.2289949953556061e-02</internalNodes>
      <leafValues>
        -7.9948467016220093e-01 2.0275111496448517e-01</leafValues></_>
    <_>
      <internalNodes>
        0 -1 140569 -8.1810582196339965e-04</internalNodes>
      <leafValues>
        4.9594727158546448e-01 -3.5359269380569458e-01</leafValues></_>
    <_>
      <internalNodes>
        0 -1 11496 6.9587386678904295e-04</internalNodes>
      <leafValues>
        -3.0755847692489624e-01 5.6677591800689697e-01</leafValues></_>
    <_>
      <internalNodes>
        0 -1 141509 9.5906108617782593e-04</internalNodes>
      <leafValues>
        -3.0868539214134216e-01 5.1481360197067261e-01</leafValues></_>
    <_>
      <internalNodes>
        0 -1 76329 6.1978620942682028e-04</internalNodes>
      <leafValues>
        -2.1524603664875031e-01 7.6701432466506958e-01</leafValues></_></weakClassifiers></stage7>
</opencv_storage>
