<?xml version="1.0"?>
<opencv_storage>
<stage8>
  <maxWeakCount>10</maxWeakCount>
  <stageThreshold>-1.9264910221099854e+00</stageThreshold>
  <weakClassifiers>
    <_>
      <internalNodes>
        0 -1 147601 -1.5711188316345215e-02</internalNodes>
      <leafValues>
        5.2631580829620361e-01 -8.3179295063018799e-01</leafValues></_>
    <_>
      <internalNodes>
        0 -1 146574 1.2443753331899643e-01</internalNodes>
      <leafValues>
        -4.8770418763160706e-01 7.0198923349380493e-01</leafValues></_>
    <_>
      <internalNodes>
        0 -1 152824 -1.3648671098053455e-02</internalNodes>
      <leafValues>
        7.4797928333282471e-01 -2.2969698905944824e-01</leafValues></_>
    <_>
      <internalNodes>
        0 -1 46567 -1.1337036266922951e-02</internalNodes>
      <leafValues>
        4.4879475235939026e-01 -3.5344091057777405e-01</leafValues></_>
    <_>
      <internalNodes>
        0 -1 64308 5.6687695905566216e-03</internalNodes>
      <leafValues>
        -1.8868836760520935e-01 7.8516352176666260e-01</leafValues></_>
    <_>
      <internalNodes>
        0 -1 32697 -3.8932390511035919e-02</internalNodes>
      <leafValues>
        6.0474610328674316e-01 -3.2842931151390076e-01</leafValues></_>
    <_>
      <internalNodes>
        0 -1 78408 -2.7960896492004395e-02</internalNodes>
      <leafValues>
        4.1022020578384399e-01 -4.5496368408203125e-01</leafValues></_>
    <_>
      <internalNodes>
        0 -1 107885 -4.4394978322088718e-03</internalNodes>
      <leafValues>
        8.6235535144805908e-01 -1.8123137950897217e-01</leafValues></_>
    <_>
      <internalNodes>
        0 -1 146059 -7.1864633355289698e-04</internalNodes>
      <leafValues>
        5.4550409317016602e-01 -2.8025808930397034e-01</leafValues></_>
    <_>
      <internalNodes>
        0 -1 154903 -1.2440173886716366e-03</internalNodes>
      <leafValues>
        5.4453104734420776e-01 -3.0668994784355164e-01</leafValues></_></weakClassifiers></stage8>
</opencv_storage>
