<?xml version="1.0"?>
<opencv_storage>
<stage10>
  <maxWeakCount>8</maxWeakCount>
  <stageThreshold>-1.5358854532241821e+00</stageThreshold>
  <weakClassifiers>
    <_>
      <internalNodes>
        0 -1 122203 1.2952813878655434e-02</internalNodes>
      <leafValues>
        -8.3348751068115234e-01 5.3846156597137451e-01</leafValues></_>
    <_>
      <internalNodes>
        0 -1 142017 8.2332957535982132e-03</internalNodes>
      <leafValues>
        -6.0702311992645264e-01 2.4163852632045746e-01</leafValues></_>
    <_>
      <internalNodes>
        0 -1 75437 -1.3803526759147644e-01</internalNodes>
      <leafValues>
        5.5352747440338135e-01 -3.4180748462677002e-01</leafValues></_>
    <_>
      <internalNodes>
        0 -1 4878 -8.1160485744476318e-02</internalNodes>
      <leafValues>
        -5.6768572330474854e-01 2.8053712844848633e-01</leafValues></_>
    <_>
      <internalNodes>
        0 -1 144016 -4.9621157813817263e-04</internalNodes>
      <leafValues>
        4.7050300240516663e-01 -3.3654114603996277e-01</leafValues></_>
    <_>
      <internalNodes>
        0 -1 59690 1.5994659624993801e-03</internalNodes>
      <leafValues>
        -3.4799131751060486e-01 4.5574581623077393e-01</leafValues></_>
    <_>
      <internalNodes>
        0 -1 81561 6.8327113986015320e-03</internalNodes>
      <leafValues>
        1.6226275265216827e-01 -1.</leafValues></_>
    <_>
      <internalNodes>
        0 -1 158915 2.8511318378150463e-03</internalNodes>
      <leafValues>
        -2.7439308166503906e-01 7.9453641176223755e-01</leafValues></_></weakClassifiers></stage10>
</opencv_storage>
